<GAP_2019_9_16_-360_7_11_25_660>
<Potential label="GAP_2019_9_16_-360_7_11_25_660" init_args="IP GAP label=GAP_2019_9_16_-360_7_11_25_660"/>

<GAP_params label="GAP_2019_9_16_-360_7_11_25_660" gap_version="1527075646">
  <GAP_data do_core="F">
    <e0 Z="1" value=".00000000000000000E+000"/>
    <e0 Z="2" value=".00000000000000000E+000"/>
    <e0 Z="3" value=".00000000000000000E+000"/>
    <e0 Z="4" value=".00000000000000000E+000"/>
    <e0 Z="5" value=".00000000000000000E+000"/>
    <e0 Z="6" value=".00000000000000000E+000"/>
    <e0 Z="7" value=".00000000000000000E+000"/>
    <e0 Z="8" value=".00000000000000000E+000"/>
    <e0 Z="9" value=".00000000000000000E+000"/>
    <e0 Z="10" value=".00000000000000000E+000"/>
    <e0 Z="11" value="1.8999793667857128"/>
    <e0 Z="12" value=".00000000000000000E+000"/>
    <e0 Z="13" value=".00000000000000000E+000"/>
    <e0 Z="14" value=".00000000000000000E+000"/>
    <e0 Z="15" value=".00000000000000000E+000"/>
    <e0 Z="16" value=".00000000000000000E+000"/>
    <e0 Z="17" value="1.8999793667857128"/>
    <e0 Z="18" value=".00000000000000000E+000"/>
    <e0 Z="19" value=".00000000000000000E+000"/>
    <e0 Z="20" value=".00000000000000000E+000"/>
    <e0 Z="21" value=".00000000000000000E+000"/>
    <e0 Z="22" value=".00000000000000000E+000"/>
    <e0 Z="23" value=".00000000000000000E+000"/>
    <e0 Z="24" value=".00000000000000000E+000"/>
    <e0 Z="25" value=".00000000000000000E+000"/>
    <e0 Z="26" value=".00000000000000000E+000"/>
    <e0 Z="27" value=".00000000000000000E+000"/>
    <e0 Z="28" value=".00000000000000000E+000"/>
    <e0 Z="29" value=".00000000000000000E+000"/>
    <e0 Z="30" value=".00000000000000000E+000"/>
    <e0 Z="31" value=".00000000000000000E+000"/>
    <e0 Z="32" value=".00000000000000000E+000"/>
    <e0 Z="33" value=".00000000000000000E+000"/>
    <e0 Z="34" value=".00000000000000000E+000"/>
    <e0 Z="35" value=".00000000000000000E+000"/>
    <e0 Z="36" value=".00000000000000000E+000"/>
    <e0 Z="37" value=".00000000000000000E+000"/>
    <e0 Z="38" value=".00000000000000000E+000"/>
    <e0 Z="39" value=".00000000000000000E+000"/>
    <e0 Z="40" value=".00000000000000000E+000"/>
    <e0 Z="41" value=".00000000000000000E+000"/>
    <e0 Z="42" value=".00000000000000000E+000"/>
    <e0 Z="43" value=".00000000000000000E+000"/>
    <e0 Z="44" value=".00000000000000000E+000"/>
    <e0 Z="45" value=".00000000000000000E+000"/>
    <e0 Z="46" value=".00000000000000000E+000"/>
    <e0 Z="47" value=".00000000000000000E+000"/>
    <e0 Z="48" value=".00000000000000000E+000"/>
    <e0 Z="49" value=".00000000000000000E+000"/>
    <e0 Z="50" value=".00000000000000000E+000"/>
    <e0 Z="51" value=".00000000000000000E+000"/>
    <e0 Z="52" value=".00000000000000000E+000"/>
    <e0 Z="53" value=".00000000000000000E+000"/>
    <e0 Z="54" value=".00000000000000000E+000"/>
    <e0 Z="55" value=".00000000000000000E+000"/>
    <e0 Z="56" value=".00000000000000000E+000"/>
    <e0 Z="57" value=".00000000000000000E+000"/>
    <e0 Z="58" value=".00000000000000000E+000"/>
    <e0 Z="59" value=".00000000000000000E+000"/>
    <e0 Z="60" value=".00000000000000000E+000"/>
    <e0 Z="61" value=".00000000000000000E+000"/>
    <e0 Z="62" value=".00000000000000000E+000"/>
    <e0 Z="63" value=".00000000000000000E+000"/>
    <e0 Z="64" value=".00000000000000000E+000"/>
    <e0 Z="65" value=".00000000000000000E+000"/>
    <e0 Z="66" value=".00000000000000000E+000"/>
    <e0 Z="67" value=".00000000000000000E+000"/>
    <e0 Z="68" value=".00000000000000000E+000"/>
    <e0 Z="69" value=".00000000000000000E+000"/>
    <e0 Z="70" value=".00000000000000000E+000"/>
    <e0 Z="71" value=".00000000000000000E+000"/>
    <e0 Z="72" value=".00000000000000000E+000"/>
    <e0 Z="73" value=".00000000000000000E+000"/>
    <e0 Z="74" value=".00000000000000000E+000"/>
    <e0 Z="75" value=".00000000000000000E+000"/>
    <e0 Z="76" value=".00000000000000000E+000"/>
    <e0 Z="77" value=".00000000000000000E+000"/>
    <e0 Z="78" value=".00000000000000000E+000"/>
    <e0 Z="79" value=".00000000000000000E+000"/>
    <e0 Z="80" value=".00000000000000000E+000"/>
    <e0 Z="81" value=".00000000000000000E+000"/>
    <e0 Z="82" value=".00000000000000000E+000"/>
    <e0 Z="83" value=".00000000000000000E+000"/>
    <e0 Z="84" value=".00000000000000000E+000"/>
    <e0 Z="85" value=".00000000000000000E+000"/>
    <e0 Z="86" value=".00000000000000000E+000"/>
    <e0 Z="87" value=".00000000000000000E+000"/>
    <e0 Z="88" value=".00000000000000000E+000"/>
    <e0 Z="89" value=".00000000000000000E+000"/>
    <e0 Z="90" value=".00000000000000000E+000"/>
    <e0 Z="91" value=".00000000000000000E+000"/>
    <e0 Z="92" value=".00000000000000000E+000"/>
    <e0 Z="93" value=".00000000000000000E+000"/>
    <e0 Z="94" value=".00000000000000000E+000"/>
    <e0 Z="95" value=".00000000000000000E+000"/>
    <e0 Z="96" value=".00000000000000000E+000"/>
    <e0 Z="97" value=".00000000000000000E+000"/>
    <e0 Z="98" value=".00000000000000000E+000"/>
    <e0 Z="99" value=".00000000000000000E+000"/>
    <e0 Z="100" value=".00000000000000000E+000"/>
    <e0 Z="101" value=".00000000000000000E+000"/>
    <e0 Z="102" value=".00000000000000000E+000"/>
    <e0 Z="103" value=".00000000000000000E+000"/>
    <e0 Z="104" value=".00000000000000000E+000"/>
    <e0 Z="105" value=".00000000000000000E+000"/>
    <e0 Z="106" value=".00000000000000000E+000"/>
    <e0 Z="107" value=".00000000000000000E+000"/>
    <e0 Z="108" value=".00000000000000000E+000"/>
    <e0 Z="109" value=".00000000000000000E+000"/>
    <e0 Z="110" value=".00000000000000000E+000"/>
    <e0 Z="111" value=".00000000000000000E+000"/>
    <e0 Z="112" value=".00000000000000000E+000"/>
    <e0 Z="113" value=".00000000000000000E+000"/>
    <e0 Z="114" value=".00000000000000000E+000"/>
    <e0 Z="115" value=".00000000000000000E+000"/>
    <e0 Z="116" value=".00000000000000000E+000"/>
  </GAP_data>
  <gpSparse label="GAP_2019_9_16_-360_7_11_25_660" n_coordinate="2">
    <gpCoordinates label="GAP_2019_9_16_-360_7_11_25_6601" dimensions="3601" signal_variance="1.0000000000000000" signal_mean=".00000000000000000E+000" sparsified="T" n_permutations="1" covariance_type="2" zeta="4.0000000000000000" n_sparseX="400" sparseX_filename="gp_NaCl_soap_coul.xml.sparseX.GAP_2019_9_16_-360_7_11_25_6601">
      <descriptor>soap                  n_max=12 l_max=11 cutoff=6.0 cutoff_transition_width=0.5 delta=1.0 atom_sigma=0.5 zeta=4 config_type_n_sparse=NaCl_snapsT300:400 sparse_method=cur_points covariance_type=dot_product n_species=2 Z=11 species_Z={11 17 }</descriptor>
      <permutation i="1">1  </permutation>
      <sparseX i="1" alpha="125.08844647695426" sparseCutoff="1.0000000000000000"/>
      <sparseX i="2" alpha="76.969955797676604" sparseCutoff="1.0000000000000000"/>
      <sparseX i="3" alpha="-9.3580854875460364" sparseCutoff="1.0000000000000000"/>
      <sparseX i="4" alpha="36.278311205688709" sparseCutoff="1.0000000000000000"/>
      <sparseX i="5" alpha="318.91225622382086" sparseCutoff="1.0000000000000000"/>
      <sparseX i="6" alpha="-28.843783968616247" sparseCutoff="1.0000000000000000"/>
      <sparseX i="7" alpha="76.050929568837546" sparseCutoff="1.0000000000000000"/>
      <sparseX i="8" alpha="-50.345678547168163" sparseCutoff="1.0000000000000000"/>
      <sparseX i="9" alpha="-54.599139392895744" sparseCutoff="1.0000000000000000"/>
      <sparseX i="10" alpha="-43.531145295522627" sparseCutoff="1.0000000000000000"/>
      <sparseX i="11" alpha="-96.555892040901654" sparseCutoff="1.0000000000000000"/>
      <sparseX i="12" alpha="3.0993079090424729" sparseCutoff="1.0000000000000000"/>
      <sparseX i="13" alpha="100.63401642188475" sparseCutoff="1.0000000000000000"/>
      <sparseX i="14" alpha="-225.62553292597920" sparseCutoff="1.0000000000000000"/>
      <sparseX i="15" alpha="-42.674739052730615" sparseCutoff="1.0000000000000000"/>
      <sparseX i="16" alpha="-121.99804685117003" sparseCutoff="1.0000000000000000"/>
      <sparseX i="17" alpha="29.857609393534947" sparseCutoff="1.0000000000000000"/>
      <sparseX i="18" alpha="57.215936077725623" sparseCutoff="1.0000000000000000"/>
      <sparseX i="19" alpha="-58.429175216197827" sparseCutoff="1.0000000000000000"/>
      <sparseX i="20" alpha="5.3017680608768840" sparseCutoff="1.0000000000000000"/>
      <sparseX i="21" alpha="120.45082872332735" sparseCutoff="1.0000000000000000"/>
      <sparseX i="22" alpha="-125.68476918581501" sparseCutoff="1.0000000000000000"/>
      <sparseX i="23" alpha="-94.878605434927280" sparseCutoff="1.0000000000000000"/>
      <sparseX i="24" alpha="-190.21120899509512" sparseCutoff="1.0000000000000000"/>
      <sparseX i="25" alpha="-35.856297705311690" sparseCutoff="1.0000000000000000"/>
      <sparseX i="26" alpha="-128.47644227589205" sparseCutoff="1.0000000000000000"/>
      <sparseX i="27" alpha="-47.633611788762110" sparseCutoff="1.0000000000000000"/>
      <sparseX i="28" alpha="101.93910950431976" sparseCutoff="1.0000000000000000"/>
      <sparseX i="29" alpha="77.739733994137751" sparseCutoff="1.0000000000000000"/>
      <sparseX i="30" alpha="-18.535103716648809" sparseCutoff="1.0000000000000000"/>
      <sparseX i="31" alpha="-169.17014362774799" sparseCutoff="1.0000000000000000"/>
      <sparseX i="32" alpha="-20.213707062991173" sparseCutoff="1.0000000000000000"/>
      <sparseX i="33" alpha="218.36223562104203" sparseCutoff="1.0000000000000000"/>
      <sparseX i="34" alpha="46.979752862436882" sparseCutoff="1.0000000000000000"/>
      <sparseX i="35" alpha=".53550038760218055" sparseCutoff="1.0000000000000000"/>
      <sparseX i="36" alpha="7.5755855888675514" sparseCutoff="1.0000000000000000"/>
      <sparseX i="37" alpha="91.710318631081478" sparseCutoff="1.0000000000000000"/>
      <sparseX i="38" alpha="-20.484276233874944" sparseCutoff="1.0000000000000000"/>
      <sparseX i="39" alpha="89.375991319294798" sparseCutoff="1.0000000000000000"/>
      <sparseX i="40" alpha="-301.62234811168662" sparseCutoff="1.0000000000000000"/>
      <sparseX i="41" alpha="188.22181699609928" sparseCutoff="1.0000000000000000"/>
      <sparseX i="42" alpha="-60.555510008042020" sparseCutoff="1.0000000000000000"/>
      <sparseX i="43" alpha="102.42163999299511" sparseCutoff="1.0000000000000000"/>
      <sparseX i="44" alpha="-137.19723678798050" sparseCutoff="1.0000000000000000"/>
      <sparseX i="45" alpha="-141.22372360487464" sparseCutoff="1.0000000000000000"/>
      <sparseX i="46" alpha="27.713260374889252" sparseCutoff="1.0000000000000000"/>
      <sparseX i="47" alpha="-50.891373375071858" sparseCutoff="1.0000000000000000"/>
      <sparseX i="48" alpha="-65.500554971616580" sparseCutoff="1.0000000000000000"/>
      <sparseX i="49" alpha="38.131144599339549" sparseCutoff="1.0000000000000000"/>
      <sparseX i="50" alpha="30.606162435657900" sparseCutoff="1.0000000000000000"/>
      <sparseX i="51" alpha="-16.508260707781918" sparseCutoff="1.0000000000000000"/>
      <sparseX i="52" alpha="-119.31862985567844" sparseCutoff="1.0000000000000000"/>
      <sparseX i="53" alpha="-168.18246857418913" sparseCutoff="1.0000000000000000"/>
      <sparseX i="54" alpha="198.73205735555482" sparseCutoff="1.0000000000000000"/>
      <sparseX i="55" alpha="-137.95102542302203" sparseCutoff="1.0000000000000000"/>
      <sparseX i="56" alpha="233.26820768427083" sparseCutoff="1.0000000000000000"/>
      <sparseX i="57" alpha="141.85761147820710" sparseCutoff="1.0000000000000000"/>
      <sparseX i="58" alpha="119.14607483752528" sparseCutoff="1.0000000000000000"/>
      <sparseX i="59" alpha="-77.012940225947887" sparseCutoff="1.0000000000000000"/>
      <sparseX i="60" alpha="-4.6170257188299964" sparseCutoff="1.0000000000000000"/>
      <sparseX i="61" alpha="-102.91231961836536" sparseCutoff="1.0000000000000000"/>
      <sparseX i="62" alpha="51.093569055449017" sparseCutoff="1.0000000000000000"/>
      <sparseX i="63" alpha="73.121412103494563" sparseCutoff="1.0000000000000000"/>
      <sparseX i="64" alpha="-9.9359515636852915" sparseCutoff="1.0000000000000000"/>
      <sparseX i="65" alpha="225.05152718133550" sparseCutoff="1.0000000000000000"/>
      <sparseX i="66" alpha="82.830147965416657" sparseCutoff="1.0000000000000000"/>
      <sparseX i="67" alpha="3.0744630232392005" sparseCutoff="1.0000000000000000"/>
      <sparseX i="68" alpha="186.00308411541874" sparseCutoff="1.0000000000000000"/>
      <sparseX i="69" alpha="-88.511609922861808" sparseCutoff="1.0000000000000000"/>
      <sparseX i="70" alpha="-61.637745538966534" sparseCutoff="1.0000000000000000"/>
      <sparseX i="71" alpha="19.546764025454703" sparseCutoff="1.0000000000000000"/>
      <sparseX i="72" alpha="-37.849978741811626" sparseCutoff="1.0000000000000000"/>
      <sparseX i="73" alpha="-115.70843082685617" sparseCutoff="1.0000000000000000"/>
      <sparseX i="74" alpha="5.1777991048477201" sparseCutoff="1.0000000000000000"/>
      <sparseX i="75" alpha="-217.85752610761105" sparseCutoff="1.0000000000000000"/>
      <sparseX i="76" alpha="-48.002095345590256" sparseCutoff="1.0000000000000000"/>
      <sparseX i="77" alpha="137.49489058703426" sparseCutoff="1.0000000000000000"/>
      <sparseX i="78" alpha="46.567392501902006" sparseCutoff="1.0000000000000000"/>
      <sparseX i="79" alpha="153.96811977885997" sparseCutoff="1.0000000000000000"/>
      <sparseX i="80" alpha="22.490852998230114" sparseCutoff="1.0000000000000000"/>
      <sparseX i="81" alpha="-42.466665132230354" sparseCutoff="1.0000000000000000"/>
      <sparseX i="82" alpha="-9.4413219360158251" sparseCutoff="1.0000000000000000"/>
      <sparseX i="83" alpha="257.24213839681249" sparseCutoff="1.0000000000000000"/>
      <sparseX i="84" alpha="11.511201161614613" sparseCutoff="1.0000000000000000"/>
      <sparseX i="85" alpha="17.338317801883868" sparseCutoff="1.0000000000000000"/>
      <sparseX i="86" alpha="-395.46388719656909" sparseCutoff="1.0000000000000000"/>
      <sparseX i="87" alpha="-65.356795806616915" sparseCutoff="1.0000000000000000"/>
      <sparseX i="88" alpha="-56.799059479936680" sparseCutoff="1.0000000000000000"/>
      <sparseX i="89" alpha="-133.67850803378300" sparseCutoff="1.0000000000000000"/>
      <sparseX i="90" alpha="-336.69114901090234" sparseCutoff="1.0000000000000000"/>
      <sparseX i="91" alpha="-95.935690179561576" sparseCutoff="1.0000000000000000"/>
      <sparseX i="92" alpha="-50.066570478811698" sparseCutoff="1.0000000000000000"/>
      <sparseX i="93" alpha="17.698828671262365" sparseCutoff="1.0000000000000000"/>
      <sparseX i="94" alpha="126.57634717626301" sparseCutoff="1.0000000000000000"/>
      <sparseX i="95" alpha="7.2481099437322305" sparseCutoff="1.0000000000000000"/>
      <sparseX i="96" alpha="139.70418521991394" sparseCutoff="1.0000000000000000"/>
      <sparseX i="97" alpha="-41.258176968851828" sparseCutoff="1.0000000000000000"/>
      <sparseX i="98" alpha="83.136386039272168" sparseCutoff="1.0000000000000000"/>
      <sparseX i="99" alpha="-18.813172762527074" sparseCutoff="1.0000000000000000"/>
      <sparseX i="100" alpha="80.556258572798725" sparseCutoff="1.0000000000000000"/>
      <sparseX i="101" alpha="321.83240263245051" sparseCutoff="1.0000000000000000"/>
      <sparseX i="102" alpha="-29.111398655294952" sparseCutoff="1.0000000000000000"/>
      <sparseX i="103" alpha="80.174393120845309" sparseCutoff="1.0000000000000000"/>
      <sparseX i="104" alpha="75.074508115839407" sparseCutoff="1.0000000000000000"/>
      <sparseX i="105" alpha="-61.829234559189921" sparseCutoff="1.0000000000000000"/>
      <sparseX i="106" alpha="131.95617825058488" sparseCutoff="1.0000000000000000"/>
      <sparseX i="107" alpha="82.977206445721478" sparseCutoff="1.0000000000000000"/>
      <sparseX i="108" alpha="38.238550052225214" sparseCutoff="1.0000000000000000"/>
      <sparseX i="109" alpha="-244.76068712635387" sparseCutoff="1.0000000000000000"/>
      <sparseX i="110" alpha="54.727898291190250" sparseCutoff="1.0000000000000000"/>
      <sparseX i="111" alpha="48.737738202752411" sparseCutoff="1.0000000000000000"/>
      <sparseX i="112" alpha="79.312383637279083" sparseCutoff="1.0000000000000000"/>
      <sparseX i="113" alpha="-132.65517339184186" sparseCutoff="1.0000000000000000"/>
      <sparseX i="114" alpha="-80.743365212158366" sparseCutoff="1.0000000000000000"/>
      <sparseX i="115" alpha="-52.060824393344113" sparseCutoff="1.0000000000000000"/>
      <sparseX i="116" alpha="194.65295294712715" sparseCutoff="1.0000000000000000"/>
      <sparseX i="117" alpha="-56.702483685843866" sparseCutoff="1.0000000000000000"/>
      <sparseX i="118" alpha="-9.0741747052484314" sparseCutoff="1.0000000000000000"/>
      <sparseX i="119" alpha="-170.22402906373014" sparseCutoff="1.0000000000000000"/>
      <sparseX i="120" alpha="-111.78290871038652" sparseCutoff="1.0000000000000000"/>
      <sparseX i="121" alpha="146.39714427672655" sparseCutoff="1.0000000000000000"/>
      <sparseX i="122" alpha="38.105802360840002" sparseCutoff="1.0000000000000000"/>
      <sparseX i="123" alpha="-12.967171833591131" sparseCutoff="1.0000000000000000"/>
      <sparseX i="124" alpha="128.04386858776198" sparseCutoff="1.0000000000000000"/>
      <sparseX i="125" alpha="-102.99370166414339" sparseCutoff="1.0000000000000000"/>
      <sparseX i="126" alpha="-5.4443648426249913" sparseCutoff="1.0000000000000000"/>
      <sparseX i="127" alpha="-139.34266520401277" sparseCutoff="1.0000000000000000"/>
      <sparseX i="128" alpha="-181.95473249369402" sparseCutoff="1.0000000000000000"/>
      <sparseX i="129" alpha="-4.3291701078759512" sparseCutoff="1.0000000000000000"/>
      <sparseX i="130" alpha="-30.185019358517724" sparseCutoff="1.0000000000000000"/>
      <sparseX i="131" alpha="-123.04422049557817" sparseCutoff="1.0000000000000000"/>
      <sparseX i="132" alpha="-15.344334479505131" sparseCutoff="1.0000000000000000"/>
      <sparseX i="133" alpha="-93.471646166445865" sparseCutoff="1.0000000000000000"/>
      <sparseX i="134" alpha="6.4569904325485030" sparseCutoff="1.0000000000000000"/>
      <sparseX i="135" alpha="-216.69711465913929" sparseCutoff="1.0000000000000000"/>
      <sparseX i="136" alpha="49.965203190099750" sparseCutoff="1.0000000000000000"/>
      <sparseX i="137" alpha="-353.05885669551003" sparseCutoff="1.0000000000000000"/>
      <sparseX i="138" alpha="140.26189071040710" sparseCutoff="1.0000000000000000"/>
      <sparseX i="139" alpha="-.46300378155015344E-001" sparseCutoff="1.0000000000000000"/>
      <sparseX i="140" alpha="15.059237471939554" sparseCutoff="1.0000000000000000"/>
      <sparseX i="141" alpha="129.82006072986150" sparseCutoff="1.0000000000000000"/>
      <sparseX i="142" alpha="-164.88958196876604" sparseCutoff="1.0000000000000000"/>
      <sparseX i="143" alpha="40.409453169453307" sparseCutoff="1.0000000000000000"/>
      <sparseX i="144" alpha="6.9014550177429479" sparseCutoff="1.0000000000000000"/>
      <sparseX i="145" alpha="21.852868409150570" sparseCutoff="1.0000000000000000"/>
      <sparseX i="146" alpha="4.3062039003266568" sparseCutoff="1.0000000000000000"/>
      <sparseX i="147" alpha="-99.533913187492658" sparseCutoff="1.0000000000000000"/>
      <sparseX i="148" alpha="-60.959918064787360" sparseCutoff="1.0000000000000000"/>
      <sparseX i="149" alpha="28.425102991829100" sparseCutoff="1.0000000000000000"/>
      <sparseX i="150" alpha="109.34594154161202" sparseCutoff="1.0000000000000000"/>
      <sparseX i="151" alpha="145.61726828251167" sparseCutoff="1.0000000000000000"/>
      <sparseX i="152" alpha=".44677370975554132" sparseCutoff="1.0000000000000000"/>
      <sparseX i="153" alpha="165.62862827352768" sparseCutoff="1.0000000000000000"/>
      <sparseX i="154" alpha="-75.973866654326329" sparseCutoff="1.0000000000000000"/>
      <sparseX i="155" alpha="51.976782489558502" sparseCutoff="1.0000000000000000"/>
      <sparseX i="156" alpha="-168.60882543913968" sparseCutoff="1.0000000000000000"/>
      <sparseX i="157" alpha="-64.949646455100719" sparseCutoff="1.0000000000000000"/>
      <sparseX i="158" alpha="-127.27081443435345" sparseCutoff="1.0000000000000000"/>
      <sparseX i="159" alpha="165.81384561651726" sparseCutoff="1.0000000000000000"/>
      <sparseX i="160" alpha="65.379047376624442" sparseCutoff="1.0000000000000000"/>
      <sparseX i="161" alpha="-219.18604917560893" sparseCutoff="1.0000000000000000"/>
      <sparseX i="162" alpha="11.998811259051095" sparseCutoff="1.0000000000000000"/>
      <sparseX i="163" alpha="-130.68337283265998" sparseCutoff="1.0000000000000000"/>
      <sparseX i="164" alpha="48.777020929973077" sparseCutoff="1.0000000000000000"/>
      <sparseX i="165" alpha="29.765131313529153" sparseCutoff="1.0000000000000000"/>
      <sparseX i="166" alpha="2.4822715841732244" sparseCutoff="1.0000000000000000"/>
      <sparseX i="167" alpha="32.811070482301645" sparseCutoff="1.0000000000000000"/>
      <sparseX i="168" alpha="126.25886121014284" sparseCutoff="1.0000000000000000"/>
      <sparseX i="169" alpha="1.6546720445719747" sparseCutoff="1.0000000000000000"/>
      <sparseX i="170" alpha="7.7734767979043662" sparseCutoff="1.0000000000000000"/>
      <sparseX i="171" alpha="214.56978120006184" sparseCutoff="1.0000000000000000"/>
      <sparseX i="172" alpha="35.113218055696223" sparseCutoff="1.0000000000000000"/>
      <sparseX i="173" alpha="-70.685577261486557" sparseCutoff="1.0000000000000000"/>
      <sparseX i="174" alpha="32.682472963732444" sparseCutoff="1.0000000000000000"/>
      <sparseX i="175" alpha="173.98967799539983" sparseCutoff="1.0000000000000000"/>
      <sparseX i="176" alpha="-162.34904180786373" sparseCutoff="1.0000000000000000"/>
      <sparseX i="177" alpha="-189.26430420259831" sparseCutoff="1.0000000000000000"/>
      <sparseX i="178" alpha="79.934438971274389" sparseCutoff="1.0000000000000000"/>
      <sparseX i="179" alpha="-129.39734876078211" sparseCutoff="1.0000000000000000"/>
      <sparseX i="180" alpha="-67.104893758404870" sparseCutoff="1.0000000000000000"/>
      <sparseX i="181" alpha="-154.87524795254711" sparseCutoff="1.0000000000000000"/>
      <sparseX i="182" alpha="50.211645098364457" sparseCutoff="1.0000000000000000"/>
      <sparseX i="183" alpha="-253.10877528014538" sparseCutoff="1.0000000000000000"/>
      <sparseX i="184" alpha="15.684491590170127" sparseCutoff="1.0000000000000000"/>
      <sparseX i="185" alpha="116.86578659162065" sparseCutoff="1.0000000000000000"/>
      <sparseX i="186" alpha="148.17285062788793" sparseCutoff="1.0000000000000000"/>
      <sparseX i="187" alpha="-102.34104360231213" sparseCutoff="1.0000000000000000"/>
      <sparseX i="188" alpha="19.649943200829231" sparseCutoff="1.0000000000000000"/>
      <sparseX i="189" alpha="37.275203852598338" sparseCutoff="1.0000000000000000"/>
      <sparseX i="190" alpha="-82.584117256053105" sparseCutoff="1.0000000000000000"/>
      <sparseX i="191" alpha="-43.468920795604276" sparseCutoff="1.0000000000000000"/>
      <sparseX i="192" alpha="-232.99063934251564" sparseCutoff="1.0000000000000000"/>
      <sparseX i="193" alpha="49.330080542783456" sparseCutoff="1.0000000000000000"/>
      <sparseX i="194" alpha="-.80184752270887749" sparseCutoff="1.0000000000000000"/>
      <sparseX i="195" alpha="204.16575790134806" sparseCutoff="1.0000000000000000"/>
      <sparseX i="196" alpha="102.26616077024961" sparseCutoff="1.0000000000000000"/>
      <sparseX i="197" alpha="38.095007324896180" sparseCutoff="1.0000000000000000"/>
      <sparseX i="198" alpha="-5.6578840832326014" sparseCutoff="1.0000000000000000"/>
      <sparseX i="199" alpha="52.526689766221359" sparseCutoff="1.0000000000000000"/>
      <sparseX i="200" alpha="15.132481312997006" sparseCutoff="1.0000000000000000"/>
      <sparseX i="201" alpha="15.577971734716559" sparseCutoff="1.0000000000000000"/>
      <sparseX i="202" alpha="-123.85301272732485" sparseCutoff="1.0000000000000000"/>
      <sparseX i="203" alpha="-78.627447806702250" sparseCutoff="1.0000000000000000"/>
      <sparseX i="204" alpha="61.690030616119813" sparseCutoff="1.0000000000000000"/>
      <sparseX i="205" alpha="-64.640236806090769" sparseCutoff="1.0000000000000000"/>
      <sparseX i="206" alpha="85.227819349913247" sparseCutoff="1.0000000000000000"/>
      <sparseX i="207" alpha="-128.21263256544137" sparseCutoff="1.0000000000000000"/>
      <sparseX i="208" alpha="-13.870164792523093" sparseCutoff="1.0000000000000000"/>
      <sparseX i="209" alpha="87.738088116058194" sparseCutoff="1.0000000000000000"/>
      <sparseX i="210" alpha="-51.443067884301577" sparseCutoff="1.0000000000000000"/>
      <sparseX i="211" alpha="44.412286594911016" sparseCutoff="1.0000000000000000"/>
      <sparseX i="212" alpha="103.14371006466418" sparseCutoff="1.0000000000000000"/>
      <sparseX i="213" alpha="-249.52533235214608" sparseCutoff="1.0000000000000000"/>
      <sparseX i="214" alpha="-103.24008415019397" sparseCutoff="1.0000000000000000"/>
      <sparseX i="215" alpha="69.305003246313234" sparseCutoff="1.0000000000000000"/>
      <sparseX i="216" alpha="-70.323350534317242" sparseCutoff="1.0000000000000000"/>
      <sparseX i="217" alpha="429.45534926034696" sparseCutoff="1.0000000000000000"/>
      <sparseX i="218" alpha="114.14646507892898" sparseCutoff="1.0000000000000000"/>
      <sparseX i="219" alpha="-38.756489806485391" sparseCutoff="1.0000000000000000"/>
      <sparseX i="220" alpha="94.623014134322347" sparseCutoff="1.0000000000000000"/>
      <sparseX i="221" alpha="22.328434610716766" sparseCutoff="1.0000000000000000"/>
      <sparseX i="222" alpha="-103.36813985051012" sparseCutoff="1.0000000000000000"/>
      <sparseX i="223" alpha="52.097706281009252" sparseCutoff="1.0000000000000000"/>
      <sparseX i="224" alpha="-141.39294494555327" sparseCutoff="1.0000000000000000"/>
      <sparseX i="225" alpha="56.202700733822901" sparseCutoff="1.0000000000000000"/>
      <sparseX i="226" alpha="22.639632246267787" sparseCutoff="1.0000000000000000"/>
      <sparseX i="227" alpha="-117.14851802611921" sparseCutoff="1.0000000000000000"/>
      <sparseX i="228" alpha="48.917939624995142" sparseCutoff="1.0000000000000000"/>
      <sparseX i="229" alpha="49.315635487898447" sparseCutoff="1.0000000000000000"/>
      <sparseX i="230" alpha="181.38721013902730" sparseCutoff="1.0000000000000000"/>
      <sparseX i="231" alpha="-102.08036884714181" sparseCutoff="1.0000000000000000"/>
      <sparseX i="232" alpha="63.682005320684929" sparseCutoff="1.0000000000000000"/>
      <sparseX i="233" alpha="-127.74402703125932" sparseCutoff="1.0000000000000000"/>
      <sparseX i="234" alpha="82.621265317819834" sparseCutoff="1.0000000000000000"/>
      <sparseX i="235" alpha="-57.184594414858523" sparseCutoff="1.0000000000000000"/>
      <sparseX i="236" alpha="28.991668156238092" sparseCutoff="1.0000000000000000"/>
      <sparseX i="237" alpha="103.12451123520792" sparseCutoff="1.0000000000000000"/>
      <sparseX i="238" alpha="-88.044249042212641" sparseCutoff="1.0000000000000000"/>
      <sparseX i="239" alpha="167.80437500441062" sparseCutoff="1.0000000000000000"/>
      <sparseX i="240" alpha="-83.164643552825837" sparseCutoff="1.0000000000000000"/>
      <sparseX i="241" alpha="-188.71255124569507" sparseCutoff="1.0000000000000000"/>
      <sparseX i="242" alpha="90.458920340547493" sparseCutoff="1.0000000000000000"/>
      <sparseX i="243" alpha="309.86944478534195" sparseCutoff="1.0000000000000000"/>
      <sparseX i="244" alpha="-78.969153006470449" sparseCutoff="1.0000000000000000"/>
      <sparseX i="245" alpha="10.490090128956524" sparseCutoff="1.0000000000000000"/>
      <sparseX i="246" alpha="-30.548280073306579" sparseCutoff="1.0000000000000000"/>
      <sparseX i="247" alpha="-89.800874579651449" sparseCutoff="1.0000000000000000"/>
      <sparseX i="248" alpha="59.142511575417885" sparseCutoff="1.0000000000000000"/>
      <sparseX i="249" alpha="46.034348213438861" sparseCutoff="1.0000000000000000"/>
      <sparseX i="250" alpha="237.68184537405958" sparseCutoff="1.0000000000000000"/>
      <sparseX i="251" alpha="26.106128263761192" sparseCutoff="1.0000000000000000"/>
      <sparseX i="252" alpha="382.33138140767988" sparseCutoff="1.0000000000000000"/>
      <sparseX i="253" alpha="199.94421915352427" sparseCutoff="1.0000000000000000"/>
      <sparseX i="254" alpha="-4.6621504397445523" sparseCutoff="1.0000000000000000"/>
      <sparseX i="255" alpha="31.051085787348736" sparseCutoff="1.0000000000000000"/>
      <sparseX i="256" alpha="55.777871108336853" sparseCutoff="1.0000000000000000"/>
      <sparseX i="257" alpha="-12.888959811311507" sparseCutoff="1.0000000000000000"/>
      <sparseX i="258" alpha="-97.079122823762816" sparseCutoff="1.0000000000000000"/>
      <sparseX i="259" alpha="-60.359899888367053" sparseCutoff="1.0000000000000000"/>
      <sparseX i="260" alpha="-46.997536795080478" sparseCutoff="1.0000000000000000"/>
      <sparseX i="261" alpha="-17.549853543239170" sparseCutoff="1.0000000000000000"/>
      <sparseX i="262" alpha="-6.9088488647583093" sparseCutoff="1.0000000000000000"/>
      <sparseX i="263" alpha="-182.03709488455343" sparseCutoff="1.0000000000000000"/>
      <sparseX i="264" alpha="22.180547642428351" sparseCutoff="1.0000000000000000"/>
      <sparseX i="265" alpha="145.91113185856614" sparseCutoff="1.0000000000000000"/>
      <sparseX i="266" alpha="-31.755079417836509" sparseCutoff="1.0000000000000000"/>
      <sparseX i="267" alpha="21.513068220235070" sparseCutoff="1.0000000000000000"/>
      <sparseX i="268" alpha="-202.30393319193277" sparseCutoff="1.0000000000000000"/>
      <sparseX i="269" alpha="-87.821015561997243" sparseCutoff="1.0000000000000000"/>
      <sparseX i="270" alpha="-75.885891061749433" sparseCutoff="1.0000000000000000"/>
      <sparseX i="271" alpha="-73.205189876691151" sparseCutoff="1.0000000000000000"/>
      <sparseX i="272" alpha="27.522510498568558" sparseCutoff="1.0000000000000000"/>
      <sparseX i="273" alpha="-169.42349842529671" sparseCutoff="1.0000000000000000"/>
      <sparseX i="274" alpha="-72.561966809792139" sparseCutoff="1.0000000000000000"/>
      <sparseX i="275" alpha="101.79401078118271" sparseCutoff="1.0000000000000000"/>
      <sparseX i="276" alpha="265.27620815634043" sparseCutoff="1.0000000000000000"/>
      <sparseX i="277" alpha="-18.298898997635362" sparseCutoff="1.0000000000000000"/>
      <sparseX i="278" alpha="-25.601620355673347" sparseCutoff="1.0000000000000000"/>
      <sparseX i="279" alpha="71.007202862365375" sparseCutoff="1.0000000000000000"/>
      <sparseX i="280" alpha="-15.232436727487091" sparseCutoff="1.0000000000000000"/>
      <sparseX i="281" alpha="83.310586755734121" sparseCutoff="1.0000000000000000"/>
      <sparseX i="282" alpha="-22.383297016859267" sparseCutoff="1.0000000000000000"/>
      <sparseX i="283" alpha="149.82376923976889" sparseCutoff="1.0000000000000000"/>
      <sparseX i="284" alpha="77.573872110817135" sparseCutoff="1.0000000000000000"/>
      <sparseX i="285" alpha="-62.601471398862927" sparseCutoff="1.0000000000000000"/>
      <sparseX i="286" alpha="29.704361946788598" sparseCutoff="1.0000000000000000"/>
      <sparseX i="287" alpha="81.999990415390585" sparseCutoff="1.0000000000000000"/>
      <sparseX i="288" alpha="180.52297989390698" sparseCutoff="1.0000000000000000"/>
      <sparseX i="289" alpha="-247.92664169934139" sparseCutoff="1.0000000000000000"/>
      <sparseX i="290" alpha="-84.049667047650999" sparseCutoff="1.0000000000000000"/>
      <sparseX i="291" alpha="85.079456871107823" sparseCutoff="1.0000000000000000"/>
      <sparseX i="292" alpha="-218.57362006697804" sparseCutoff="1.0000000000000000"/>
      <sparseX i="293" alpha="-18.640665941679078" sparseCutoff="1.0000000000000000"/>
      <sparseX i="294" alpha="175.11775098693309" sparseCutoff="1.0000000000000000"/>
      <sparseX i="295" alpha="6.0867955194557526" sparseCutoff="1.0000000000000000"/>
      <sparseX i="296" alpha="-51.019003152431623" sparseCutoff="1.0000000000000000"/>
      <sparseX i="297" alpha="138.92302035687405" sparseCutoff="1.0000000000000000"/>
      <sparseX i="298" alpha="-129.77602531001824" sparseCutoff="1.0000000000000000"/>
      <sparseX i="299" alpha="235.36813301010119" sparseCutoff="1.0000000000000000"/>
      <sparseX i="300" alpha="88.402654899822807" sparseCutoff="1.0000000000000000"/>
      <sparseX i="301" alpha="194.53739643867692" sparseCutoff="1.0000000000000000"/>
      <sparseX i="302" alpha="-76.637555188638231" sparseCutoff="1.0000000000000000"/>
      <sparseX i="303" alpha="-5.9726879466447205" sparseCutoff="1.0000000000000000"/>
      <sparseX i="304" alpha="216.01520992468522" sparseCutoff="1.0000000000000000"/>
      <sparseX i="305" alpha="97.244338617294630" sparseCutoff="1.0000000000000000"/>
      <sparseX i="306" alpha="163.86055720366167" sparseCutoff="1.0000000000000000"/>
      <sparseX i="307" alpha="122.95885081688037" sparseCutoff="1.0000000000000000"/>
      <sparseX i="308" alpha="216.17550115964053" sparseCutoff="1.0000000000000000"/>
      <sparseX i="309" alpha="-258.54192078824383" sparseCutoff="1.0000000000000000"/>
      <sparseX i="310" alpha="-10.487016076879625" sparseCutoff="1.0000000000000000"/>
      <sparseX i="311" alpha="-26.361839263000771" sparseCutoff="1.0000000000000000"/>
      <sparseX i="312" alpha="55.450006550031482" sparseCutoff="1.0000000000000000"/>
      <sparseX i="313" alpha="-103.64934845050753" sparseCutoff="1.0000000000000000"/>
      <sparseX i="314" alpha="112.92164303304845" sparseCutoff="1.0000000000000000"/>
      <sparseX i="315" alpha="-19.364345864725347" sparseCutoff="1.0000000000000000"/>
      <sparseX i="316" alpha="-104.11656604583467" sparseCutoff="1.0000000000000000"/>
      <sparseX i="317" alpha="-199.66314249878272" sparseCutoff="1.0000000000000000"/>
      <sparseX i="318" alpha="10.280440912876472" sparseCutoff="1.0000000000000000"/>
      <sparseX i="319" alpha="128.64729687057238" sparseCutoff="1.0000000000000000"/>
      <sparseX i="320" alpha="-66.933427655836738" sparseCutoff="1.0000000000000000"/>
      <sparseX i="321" alpha="202.85318515806040" sparseCutoff="1.0000000000000000"/>
      <sparseX i="322" alpha="-16.536444174956895" sparseCutoff="1.0000000000000000"/>
      <sparseX i="323" alpha="-19.839629137146680" sparseCutoff="1.0000000000000000"/>
      <sparseX i="324" alpha="6.7440195465794304" sparseCutoff="1.0000000000000000"/>
      <sparseX i="325" alpha="38.851225683933194" sparseCutoff="1.0000000000000000"/>
      <sparseX i="326" alpha="-160.13242863029436" sparseCutoff="1.0000000000000000"/>
      <sparseX i="327" alpha="-27.072128248335282" sparseCutoff="1.0000000000000000"/>
      <sparseX i="328" alpha="186.64893596578759" sparseCutoff="1.0000000000000000"/>
      <sparseX i="329" alpha="94.466896294259911" sparseCutoff="1.0000000000000000"/>
      <sparseX i="330" alpha="68.989928337315050" sparseCutoff="1.0000000000000000"/>
      <sparseX i="331" alpha="14.025352913013599" sparseCutoff="1.0000000000000000"/>
      <sparseX i="332" alpha="48.725775832279240" sparseCutoff="1.0000000000000000"/>
      <sparseX i="333" alpha="106.45231328773696" sparseCutoff="1.0000000000000000"/>
      <sparseX i="334" alpha="-23.348078867387823" sparseCutoff="1.0000000000000000"/>
      <sparseX i="335" alpha="-125.99546420042270" sparseCutoff="1.0000000000000000"/>
      <sparseX i="336" alpha="82.526287676961374" sparseCutoff="1.0000000000000000"/>
      <sparseX i="337" alpha="156.39079592785453" sparseCutoff="1.0000000000000000"/>
      <sparseX i="338" alpha="26.181420646675367" sparseCutoff="1.0000000000000000"/>
      <sparseX i="339" alpha="-53.758543475858893" sparseCutoff="1.0000000000000000"/>
      <sparseX i="340" alpha="-198.15398952566935" sparseCutoff="1.0000000000000000"/>
      <sparseX i="341" alpha="-166.74066688193116" sparseCutoff="1.0000000000000000"/>
      <sparseX i="342" alpha="-137.99421782123568" sparseCutoff="1.0000000000000000"/>
      <sparseX i="343" alpha="-117.50899722880028" sparseCutoff="1.0000000000000000"/>
      <sparseX i="344" alpha="31.114534171585071" sparseCutoff="1.0000000000000000"/>
      <sparseX i="345" alpha="58.280337104675361" sparseCutoff="1.0000000000000000"/>
      <sparseX i="346" alpha="17.308035518030533" sparseCutoff="1.0000000000000000"/>
      <sparseX i="347" alpha="-53.804175607297097" sparseCutoff="1.0000000000000000"/>
      <sparseX i="348" alpha="-5.4328614233798751" sparseCutoff="1.0000000000000000"/>
      <sparseX i="349" alpha="-191.15823529640272" sparseCutoff="1.0000000000000000"/>
      <sparseX i="350" alpha="62.213703191971689" sparseCutoff="1.0000000000000000"/>
      <sparseX i="351" alpha="131.89089776194768" sparseCutoff="1.0000000000000000"/>
      <sparseX i="352" alpha="-91.220967985968500" sparseCutoff="1.0000000000000000"/>
      <sparseX i="353" alpha="-55.876003867507933" sparseCutoff="1.0000000000000000"/>
      <sparseX i="354" alpha="-308.12454133131223" sparseCutoff="1.0000000000000000"/>
      <sparseX i="355" alpha="-38.781278305586312" sparseCutoff="1.0000000000000000"/>
      <sparseX i="356" alpha="-34.091359792489285" sparseCutoff="1.0000000000000000"/>
      <sparseX i="357" alpha="-47.902727635539144" sparseCutoff="1.0000000000000000"/>
      <sparseX i="358" alpha="27.360527292048022" sparseCutoff="1.0000000000000000"/>
      <sparseX i="359" alpha="160.88647286367299" sparseCutoff="1.0000000000000000"/>
      <sparseX i="360" alpha="19.522811633818360" sparseCutoff="1.0000000000000000"/>
      <sparseX i="361" alpha="-119.32108889481609" sparseCutoff="1.0000000000000000"/>
      <sparseX i="362" alpha="-93.119013928232690" sparseCutoff="1.0000000000000000"/>
      <sparseX i="363" alpha="-50.104907591807645" sparseCutoff="1.0000000000000000"/>
      <sparseX i="364" alpha="70.574620348099529" sparseCutoff="1.0000000000000000"/>
      <sparseX i="365" alpha="56.050277802727486" sparseCutoff="1.0000000000000000"/>
      <sparseX i="366" alpha="-67.961709010787615" sparseCutoff="1.0000000000000000"/>
      <sparseX i="367" alpha="49.222373579661010" sparseCutoff="1.0000000000000000"/>
      <sparseX i="368" alpha="164.96868173570743" sparseCutoff="1.0000000000000000"/>
      <sparseX i="369" alpha="25.289774509944305" sparseCutoff="1.0000000000000000"/>
      <sparseX i="370" alpha="-39.900674868437420" sparseCutoff="1.0000000000000000"/>
      <sparseX i="371" alpha="6.5628446048750986" sparseCutoff="1.0000000000000000"/>
      <sparseX i="372" alpha="-122.56921607264451" sparseCutoff="1.0000000000000000"/>
      <sparseX i="373" alpha="-25.012536784003299" sparseCutoff="1.0000000000000000"/>
      <sparseX i="374" alpha="35.069529018100539" sparseCutoff="1.0000000000000000"/>
      <sparseX i="375" alpha="-103.63184365915646" sparseCutoff="1.0000000000000000"/>
      <sparseX i="376" alpha="95.733910523655197" sparseCutoff="1.0000000000000000"/>
      <sparseX i="377" alpha="-23.467417100391149" sparseCutoff="1.0000000000000000"/>
      <sparseX i="378" alpha="24.917601573658260" sparseCutoff="1.0000000000000000"/>
      <sparseX i="379" alpha="114.00118143990012" sparseCutoff="1.0000000000000000"/>
      <sparseX i="380" alpha="-22.404332892643200" sparseCutoff="1.0000000000000000"/>
      <sparseX i="381" alpha="-.97145647626656795" sparseCutoff="1.0000000000000000"/>
      <sparseX i="382" alpha="-91.588556798974182" sparseCutoff="1.0000000000000000"/>
      <sparseX i="383" alpha="-269.74933015456912" sparseCutoff="1.0000000000000000"/>
      <sparseX i="384" alpha="-11.271560161698060" sparseCutoff="1.0000000000000000"/>
      <sparseX i="385" alpha="156.14911955665542" sparseCutoff="1.0000000000000000"/>
      <sparseX i="386" alpha="50.773840690918284" sparseCutoff="1.0000000000000000"/>
      <sparseX i="387" alpha="94.337890534238952" sparseCutoff="1.0000000000000000"/>
      <sparseX i="388" alpha="18.795117782656902" sparseCutoff="1.0000000000000000"/>
      <sparseX i="389" alpha="-106.70039883845457" sparseCutoff="1.0000000000000000"/>
      <sparseX i="390" alpha="11.332308497570796" sparseCutoff="1.0000000000000000"/>
      <sparseX i="391" alpha="-59.858508775639919" sparseCutoff="1.0000000000000000"/>
      <sparseX i="392" alpha="-250.84446055030841" sparseCutoff="1.0000000000000000"/>
      <sparseX i="393" alpha="-36.335889230452757" sparseCutoff="1.0000000000000000"/>
      <sparseX i="394" alpha="-12.793177985433266" sparseCutoff="1.0000000000000000"/>
      <sparseX i="395" alpha=".41571450070231064" sparseCutoff="1.0000000000000000"/>
      <sparseX i="396" alpha="-92.029385882060481" sparseCutoff="1.0000000000000000"/>
      <sparseX i="397" alpha="-81.589043576817986" sparseCutoff="1.0000000000000000"/>
      <sparseX i="398" alpha="91.339941083504527" sparseCutoff="1.0000000000000000"/>
      <sparseX i="399" alpha="-8.9814599334536922" sparseCutoff="1.0000000000000000"/>
      <sparseX i="400" alpha="256.94041201956117" sparseCutoff="1.0000000000000000"/>
    </gpCoordinates>
    <gpCoordinates label="GAP_2019_9_16_-360_7_11_25_6602" dimensions="3601" signal_variance="1.0000000000000000" signal_mean=".00000000000000000E+000" sparsified="T" n_permutations="1" covariance_type="2" zeta="4.0000000000000000" n_sparseX="400" sparseX_filename="gp_NaCl_soap_coul.xml.sparseX.GAP_2019_9_16_-360_7_11_25_6602">
      <descriptor>soap                  n_max=12 l_max=11 cutoff=6.0 cutoff_transition_width=0.5 delta=1.0 atom_sigma=0.5 zeta=4 config_type_n_sparse=NaCl_snapsT300:400 sparse_method=cur_points covariance_type=dot_product n_species=2 Z=17 species_Z={11 17 }</descriptor>
      <permutation i="1">1  </permutation>
      <sparseX i="1" alpha="46.080400517358449" sparseCutoff="1.0000000000000000"/>
      <sparseX i="2" alpha="-69.892808039963469" sparseCutoff="1.0000000000000000"/>
      <sparseX i="3" alpha="-146.89901406767558" sparseCutoff="1.0000000000000000"/>
      <sparseX i="4" alpha="205.55709556899220" sparseCutoff="1.0000000000000000"/>
      <sparseX i="5" alpha="-53.181865455772041" sparseCutoff="1.0000000000000000"/>
      <sparseX i="6" alpha="29.029098151250007" sparseCutoff="1.0000000000000000"/>
      <sparseX i="7" alpha="87.190608366474905" sparseCutoff="1.0000000000000000"/>
      <sparseX i="8" alpha="-176.87924202325863" sparseCutoff="1.0000000000000000"/>
      <sparseX i="9" alpha="49.972541813703543" sparseCutoff="1.0000000000000000"/>
      <sparseX i="10" alpha="56.685192527508562" sparseCutoff="1.0000000000000000"/>
      <sparseX i="11" alpha="-85.880983469820706" sparseCutoff="1.0000000000000000"/>
      <sparseX i="12" alpha="-249.61122222163576" sparseCutoff="1.0000000000000000"/>
      <sparseX i="13" alpha="33.743369771556608" sparseCutoff="1.0000000000000000"/>
      <sparseX i="14" alpha="107.28915978180864" sparseCutoff="1.0000000000000000"/>
      <sparseX i="15" alpha="-94.038511567498901" sparseCutoff="1.0000000000000000"/>
      <sparseX i="16" alpha="-309.48105367223337" sparseCutoff="1.0000000000000000"/>
      <sparseX i="17" alpha="21.907013851012810" sparseCutoff="1.0000000000000000"/>
      <sparseX i="18" alpha="-10.681633934782113" sparseCutoff="1.0000000000000000"/>
      <sparseX i="19" alpha="-57.315116033360439" sparseCutoff="1.0000000000000000"/>
      <sparseX i="20" alpha="-59.910769383985695" sparseCutoff="1.0000000000000000"/>
      <sparseX i="21" alpha="43.295082137138714" sparseCutoff="1.0000000000000000"/>
      <sparseX i="22" alpha="349.47581042746600" sparseCutoff="1.0000000000000000"/>
      <sparseX i="23" alpha="25.842804837200273" sparseCutoff="1.0000000000000000"/>
      <sparseX i="24" alpha="-147.89937873988629" sparseCutoff="1.0000000000000000"/>
      <sparseX i="25" alpha="-151.90530393464965" sparseCutoff="1.0000000000000000"/>
      <sparseX i="26" alpha="-58.460411978349683" sparseCutoff="1.0000000000000000"/>
      <sparseX i="27" alpha="-181.20889835762912" sparseCutoff="1.0000000000000000"/>
      <sparseX i="28" alpha="144.09221534891336" sparseCutoff="1.0000000000000000"/>
      <sparseX i="29" alpha="345.98840706896272" sparseCutoff="1.0000000000000000"/>
      <sparseX i="30" alpha="-6.9816061838426107" sparseCutoff="1.0000000000000000"/>
      <sparseX i="31" alpha="-19.645205931998138" sparseCutoff="1.0000000000000000"/>
      <sparseX i="32" alpha="-43.272961583793759" sparseCutoff="1.0000000000000000"/>
      <sparseX i="33" alpha="-145.30517771384618" sparseCutoff="1.0000000000000000"/>
      <sparseX i="34" alpha="275.57669780531000" sparseCutoff="1.0000000000000000"/>
      <sparseX i="35" alpha="-116.37111080747846" sparseCutoff="1.0000000000000000"/>
      <sparseX i="36" alpha="1.1697828820771969" sparseCutoff="1.0000000000000000"/>
      <sparseX i="37" alpha="-72.920030184913358" sparseCutoff="1.0000000000000000"/>
      <sparseX i="38" alpha="93.379460000908708" sparseCutoff="1.0000000000000000"/>
      <sparseX i="39" alpha="29.017733346922160" sparseCutoff="1.0000000000000000"/>
      <sparseX i="40" alpha="126.71337682609045" sparseCutoff="1.0000000000000000"/>
      <sparseX i="41" alpha="-161.30737224279935" sparseCutoff="1.0000000000000000"/>
      <sparseX i="42" alpha="97.393636078189786" sparseCutoff="1.0000000000000000"/>
      <sparseX i="43" alpha="-.82776529064093496" sparseCutoff="1.0000000000000000"/>
      <sparseX i="44" alpha="98.534182494869683" sparseCutoff="1.0000000000000000"/>
      <sparseX i="45" alpha="85.114799917514475" sparseCutoff="1.0000000000000000"/>
      <sparseX i="46" alpha="-26.595420758293312" sparseCutoff="1.0000000000000000"/>
      <sparseX i="47" alpha="194.20964187533187" sparseCutoff="1.0000000000000000"/>
      <sparseX i="48" alpha="98.920527103160254" sparseCutoff="1.0000000000000000"/>
      <sparseX i="49" alpha="70.701707475841530" sparseCutoff="1.0000000000000000"/>
      <sparseX i="50" alpha="91.180279416267169" sparseCutoff="1.0000000000000000"/>
      <sparseX i="51" alpha="186.72973068447442" sparseCutoff="1.0000000000000000"/>
      <sparseX i="52" alpha="-169.91384884504296" sparseCutoff="1.0000000000000000"/>
      <sparseX i="53" alpha="-63.222337598876706" sparseCutoff="1.0000000000000000"/>
      <sparseX i="54" alpha="-149.27593569532988" sparseCutoff="1.0000000000000000"/>
      <sparseX i="55" alpha="102.77328158312199" sparseCutoff="1.0000000000000000"/>
      <sparseX i="56" alpha="-44.533041301124662" sparseCutoff="1.0000000000000000"/>
      <sparseX i="57" alpha="-160.64132625078986" sparseCutoff="1.0000000000000000"/>
      <sparseX i="58" alpha="-46.192464217714097" sparseCutoff="1.0000000000000000"/>
      <sparseX i="59" alpha="198.97144257893504" sparseCutoff="1.0000000000000000"/>
      <sparseX i="60" alpha="-29.336346476875978" sparseCutoff="1.0000000000000000"/>
      <sparseX i="61" alpha="17.820724658067125" sparseCutoff="1.0000000000000000"/>
      <sparseX i="62" alpha="-103.15838642316368" sparseCutoff="1.0000000000000000"/>
      <sparseX i="63" alpha="79.707123099189332" sparseCutoff="1.0000000000000000"/>
      <sparseX i="64" alpha="-191.09519099636822" sparseCutoff="1.0000000000000000"/>
      <sparseX i="65" alpha="423.71643503687608" sparseCutoff="1.0000000000000000"/>
      <sparseX i="66" alpha="-43.374207858699108" sparseCutoff="1.0000000000000000"/>
      <sparseX i="67" alpha="-183.22372399720533" sparseCutoff="1.0000000000000000"/>
      <sparseX i="68" alpha="220.08287343722685" sparseCutoff="1.0000000000000000"/>
      <sparseX i="69" alpha="132.30849242175375" sparseCutoff="1.0000000000000000"/>
      <sparseX i="70" alpha="-80.566026337520540" sparseCutoff="1.0000000000000000"/>
      <sparseX i="71" alpha="43.672406871079211" sparseCutoff="1.0000000000000000"/>
      <sparseX i="72" alpha="-202.28399678814696" sparseCutoff="1.0000000000000000"/>
      <sparseX i="73" alpha="336.77101519624881" sparseCutoff="1.0000000000000000"/>
      <sparseX i="74" alpha="25.786651135495859" sparseCutoff="1.0000000000000000"/>
      <sparseX i="75" alpha="-36.762066562995251" sparseCutoff="1.0000000000000000"/>
      <sparseX i="76" alpha="-154.89656897295814" sparseCutoff="1.0000000000000000"/>
      <sparseX i="77" alpha="3.0300323605875668" sparseCutoff="1.0000000000000000"/>
      <sparseX i="78" alpha="276.35111055075174" sparseCutoff="1.0000000000000000"/>
      <sparseX i="79" alpha="197.23817736983935" sparseCutoff="1.0000000000000000"/>
      <sparseX i="80" alpha="214.51037053681554" sparseCutoff="1.0000000000000000"/>
      <sparseX i="81" alpha="-41.319791761219811" sparseCutoff="1.0000000000000000"/>
      <sparseX i="82" alpha="280.19482316629734" sparseCutoff="1.0000000000000000"/>
      <sparseX i="83" alpha="226.86640609434565" sparseCutoff="1.0000000000000000"/>
      <sparseX i="84" alpha="67.637741089200247" sparseCutoff="1.0000000000000000"/>
      <sparseX i="85" alpha="-90.865904843063845" sparseCutoff="1.0000000000000000"/>
      <sparseX i="86" alpha="125.08169858201228" sparseCutoff="1.0000000000000000"/>
      <sparseX i="87" alpha="4.4567312194743565" sparseCutoff="1.0000000000000000"/>
      <sparseX i="88" alpha="19.840052892399605" sparseCutoff="1.0000000000000000"/>
      <sparseX i="89" alpha="-88.597075886503518" sparseCutoff="1.0000000000000000"/>
      <sparseX i="90" alpha="-209.93065391400572" sparseCutoff="1.0000000000000000"/>
      <sparseX i="91" alpha="-48.160066611425442" sparseCutoff="1.0000000000000000"/>
      <sparseX i="92" alpha="171.12632761220448" sparseCutoff="1.0000000000000000"/>
      <sparseX i="93" alpha="-71.971320476736949" sparseCutoff="1.0000000000000000"/>
      <sparseX i="94" alpha="151.72106696713607" sparseCutoff="1.0000000000000000"/>
      <sparseX i="95" alpha="137.45183842530392" sparseCutoff="1.0000000000000000"/>
      <sparseX i="96" alpha="500.40319238041189" sparseCutoff="1.0000000000000000"/>
      <sparseX i="97" alpha="72.080863263434551" sparseCutoff="1.0000000000000000"/>
      <sparseX i="98" alpha="-60.320825532547119" sparseCutoff="1.0000000000000000"/>
      <sparseX i="99" alpha="2.6748376694878031" sparseCutoff="1.0000000000000000"/>
      <sparseX i="100" alpha="-25.447678372749525" sparseCutoff="1.0000000000000000"/>
      <sparseX i="101" alpha="-16.254322157277681" sparseCutoff="1.0000000000000000"/>
      <sparseX i="102" alpha="38.517302522940419" sparseCutoff="1.0000000000000000"/>
      <sparseX i="103" alpha="149.14942756359898" sparseCutoff="1.0000000000000000"/>
      <sparseX i="104" alpha="26.850598761643688" sparseCutoff="1.0000000000000000"/>
      <sparseX i="105" alpha="180.76582568221423" sparseCutoff="1.0000000000000000"/>
      <sparseX i="106" alpha="-92.174164178203171" sparseCutoff="1.0000000000000000"/>
      <sparseX i="107" alpha="-89.672852226582535" sparseCutoff="1.0000000000000000"/>
      <sparseX i="108" alpha="-506.55274454735979" sparseCutoff="1.0000000000000000"/>
      <sparseX i="109" alpha="-182.01138578450420" sparseCutoff="1.0000000000000000"/>
      <sparseX i="110" alpha="356.39950793435537" sparseCutoff="1.0000000000000000"/>
      <sparseX i="111" alpha="36.748259560498958" sparseCutoff="1.0000000000000000"/>
      <sparseX i="112" alpha="-79.339218387994549" sparseCutoff="1.0000000000000000"/>
      <sparseX i="113" alpha="121.64551924635850" sparseCutoff="1.0000000000000000"/>
      <sparseX i="114" alpha="17.418762877031043" sparseCutoff="1.0000000000000000"/>
      <sparseX i="115" alpha="64.927508437513140" sparseCutoff="1.0000000000000000"/>
      <sparseX i="116" alpha="-7.4618080795976338" sparseCutoff="1.0000000000000000"/>
      <sparseX i="117" alpha="-83.294718054644505" sparseCutoff="1.0000000000000000"/>
      <sparseX i="118" alpha="-16.201746313480193" sparseCutoff="1.0000000000000000"/>
      <sparseX i="119" alpha="-149.92331304386474" sparseCutoff="1.0000000000000000"/>
      <sparseX i="120" alpha="96.364364182623447" sparseCutoff="1.0000000000000000"/>
      <sparseX i="121" alpha="57.258180013579491" sparseCutoff="1.0000000000000000"/>
      <sparseX i="122" alpha="72.837461523168088" sparseCutoff="1.0000000000000000"/>
      <sparseX i="123" alpha="68.046877865493499" sparseCutoff="1.0000000000000000"/>
      <sparseX i="124" alpha="42.468924431886222" sparseCutoff="1.0000000000000000"/>
      <sparseX i="125" alpha="-58.735966831775137" sparseCutoff="1.0000000000000000"/>
      <sparseX i="126" alpha="-300.81600819490365" sparseCutoff="1.0000000000000000"/>
      <sparseX i="127" alpha="305.35844527345392" sparseCutoff="1.0000000000000000"/>
      <sparseX i="128" alpha="-193.95927421095951" sparseCutoff="1.0000000000000000"/>
      <sparseX i="129" alpha="70.340578829879192" sparseCutoff="1.0000000000000000"/>
      <sparseX i="130" alpha="394.61748535850279" sparseCutoff="1.0000000000000000"/>
      <sparseX i="131" alpha="-30.013937238895341" sparseCutoff="1.0000000000000000"/>
      <sparseX i="132" alpha="198.86673877380966" sparseCutoff="1.0000000000000000"/>
      <sparseX i="133" alpha="365.97264062358062" sparseCutoff="1.0000000000000000"/>
      <sparseX i="134" alpha="-8.4358064765867304" sparseCutoff="1.0000000000000000"/>
      <sparseX i="135" alpha="-7.7583647347103444" sparseCutoff="1.0000000000000000"/>
      <sparseX i="136" alpha="44.435412186461271" sparseCutoff="1.0000000000000000"/>
      <sparseX i="137" alpha="78.916054754143417" sparseCutoff="1.0000000000000000"/>
      <sparseX i="138" alpha="363.10969514374631" sparseCutoff="1.0000000000000000"/>
      <sparseX i="139" alpha="196.02207722708025" sparseCutoff="1.0000000000000000"/>
      <sparseX i="140" alpha="2.8032680456012629" sparseCutoff="1.0000000000000000"/>
      <sparseX i="141" alpha="59.449921824412058" sparseCutoff="1.0000000000000000"/>
      <sparseX i="142" alpha="-6.6364825365763291" sparseCutoff="1.0000000000000000"/>
      <sparseX i="143" alpha="-296.16081816321201" sparseCutoff="1.0000000000000000"/>
      <sparseX i="144" alpha="156.72855768471138" sparseCutoff="1.0000000000000000"/>
      <sparseX i="145" alpha="97.305845417182297" sparseCutoff="1.0000000000000000"/>
      <sparseX i="146" alpha="-101.40168823423775" sparseCutoff="1.0000000000000000"/>
      <sparseX i="147" alpha="143.72696697934896" sparseCutoff="1.0000000000000000"/>
      <sparseX i="148" alpha="-360.58247160945314" sparseCutoff="1.0000000000000000"/>
      <sparseX i="149" alpha="250.91685540489780" sparseCutoff="1.0000000000000000"/>
      <sparseX i="150" alpha="-36.880727097666202" sparseCutoff="1.0000000000000000"/>
      <sparseX i="151" alpha="-24.243157530371757" sparseCutoff="1.0000000000000000"/>
      <sparseX i="152" alpha="140.07724934870149" sparseCutoff="1.0000000000000000"/>
      <sparseX i="153" alpha="118.55736055580242" sparseCutoff="1.0000000000000000"/>
      <sparseX i="154" alpha="-38.992483020983542" sparseCutoff="1.0000000000000000"/>
      <sparseX i="155" alpha="-270.31420077638927" sparseCutoff="1.0000000000000000"/>
      <sparseX i="156" alpha="122.71622493697996" sparseCutoff="1.0000000000000000"/>
      <sparseX i="157" alpha="193.98581293705323" sparseCutoff="1.0000000000000000"/>
      <sparseX i="158" alpha="-297.60981501509588" sparseCutoff="1.0000000000000000"/>
      <sparseX i="159" alpha="-94.741167481134880" sparseCutoff="1.0000000000000000"/>
      <sparseX i="160" alpha="170.42566778911467" sparseCutoff="1.0000000000000000"/>
      <sparseX i="161" alpha="-239.19951095125614" sparseCutoff="1.0000000000000000"/>
      <sparseX i="162" alpha="-30.542062332927923" sparseCutoff="1.0000000000000000"/>
      <sparseX i="163" alpha="-55.007144986053071" sparseCutoff="1.0000000000000000"/>
      <sparseX i="164" alpha="-42.783195104832600" sparseCutoff="1.0000000000000000"/>
      <sparseX i="165" alpha="48.209278667555530" sparseCutoff="1.0000000000000000"/>
      <sparseX i="166" alpha="-253.58507639896752" sparseCutoff="1.0000000000000000"/>
      <sparseX i="167" alpha="195.19875200640917" sparseCutoff="1.0000000000000000"/>
      <sparseX i="168" alpha="71.048362791421610" sparseCutoff="1.0000000000000000"/>
      <sparseX i="169" alpha="-141.65880722059953" sparseCutoff="1.0000000000000000"/>
      <sparseX i="170" alpha="154.60048612707237" sparseCutoff="1.0000000000000000"/>
      <sparseX i="171" alpha="-110.02626370717266" sparseCutoff="1.0000000000000000"/>
      <sparseX i="172" alpha="-30.327320142998467" sparseCutoff="1.0000000000000000"/>
      <sparseX i="173" alpha="21.554483198029299" sparseCutoff="1.0000000000000000"/>
      <sparseX i="174" alpha="-99.244724021027480" sparseCutoff="1.0000000000000000"/>
      <sparseX i="175" alpha="557.20009860862888" sparseCutoff="1.0000000000000000"/>
      <sparseX i="176" alpha="-279.15646431060571" sparseCutoff="1.0000000000000000"/>
      <sparseX i="177" alpha="18.158050740693639" sparseCutoff="1.0000000000000000"/>
      <sparseX i="178" alpha="-209.43977173538548" sparseCutoff="1.0000000000000000"/>
      <sparseX i="179" alpha="152.44779233634438" sparseCutoff="1.0000000000000000"/>
      <sparseX i="180" alpha="-107.76178821984951" sparseCutoff="1.0000000000000000"/>
      <sparseX i="181" alpha="5.3725463314319297" sparseCutoff="1.0000000000000000"/>
      <sparseX i="182" alpha="-48.969476141858777" sparseCutoff="1.0000000000000000"/>
      <sparseX i="183" alpha="-152.82369408008998" sparseCutoff="1.0000000000000000"/>
      <sparseX i="184" alpha="-99.570956754277631" sparseCutoff="1.0000000000000000"/>
      <sparseX i="185" alpha="-274.47622932245139" sparseCutoff="1.0000000000000000"/>
      <sparseX i="186" alpha="-161.85569451795658" sparseCutoff="1.0000000000000000"/>
      <sparseX i="187" alpha="71.261532441034120" sparseCutoff="1.0000000000000000"/>
      <sparseX i="188" alpha="-10.194508690566481" sparseCutoff="1.0000000000000000"/>
      <sparseX i="189" alpha="-73.960790823251145" sparseCutoff="1.0000000000000000"/>
      <sparseX i="190" alpha="71.247857709262789" sparseCutoff="1.0000000000000000"/>
      <sparseX i="191" alpha="-39.024814971862533" sparseCutoff="1.0000000000000000"/>
      <sparseX i="192" alpha="-93.929447226807213" sparseCutoff="1.0000000000000000"/>
      <sparseX i="193" alpha="32.664124731904174" sparseCutoff="1.0000000000000000"/>
      <sparseX i="194" alpha="-29.165485586743205" sparseCutoff="1.0000000000000000"/>
      <sparseX i="195" alpha="9.7811211505509963" sparseCutoff="1.0000000000000000"/>
      <sparseX i="196" alpha="30.771347064418695" sparseCutoff="1.0000000000000000"/>
      <sparseX i="197" alpha="-97.759022359232361" sparseCutoff="1.0000000000000000"/>
      <sparseX i="198" alpha="68.502296568590793" sparseCutoff="1.0000000000000000"/>
      <sparseX i="199" alpha="103.36643529952541" sparseCutoff="1.0000000000000000"/>
      <sparseX i="200" alpha="15.739770184937507" sparseCutoff="1.0000000000000000"/>
      <sparseX i="201" alpha="-87.732140233313572" sparseCutoff="1.0000000000000000"/>
      <sparseX i="202" alpha="34.755104745119858" sparseCutoff="1.0000000000000000"/>
      <sparseX i="203" alpha="-223.52045154359692" sparseCutoff="1.0000000000000000"/>
      <sparseX i="204" alpha="57.088059303229151" sparseCutoff="1.0000000000000000"/>
      <sparseX i="205" alpha="69.022908824409470" sparseCutoff="1.0000000000000000"/>
      <sparseX i="206" alpha="130.97717873863326" sparseCutoff="1.0000000000000000"/>
      <sparseX i="207" alpha="47.625837762756419" sparseCutoff="1.0000000000000000"/>
      <sparseX i="208" alpha="-245.63503454620249" sparseCutoff="1.0000000000000000"/>
      <sparseX i="209" alpha="-449.13833716084912" sparseCutoff="1.0000000000000000"/>
      <sparseX i="210" alpha="-23.861633346166911" sparseCutoff="1.0000000000000000"/>
      <sparseX i="211" alpha="-69.053377485440862" sparseCutoff="1.0000000000000000"/>
      <sparseX i="212" alpha="-223.67542758828233" sparseCutoff="1.0000000000000000"/>
      <sparseX i="213" alpha="-235.04118827624902" sparseCutoff="1.0000000000000000"/>
      <sparseX i="214" alpha="-910.86350064835210" sparseCutoff="1.0000000000000000"/>
      <sparseX i="215" alpha="-226.97427724104386" sparseCutoff="1.0000000000000000"/>
      <sparseX i="216" alpha="134.92450697875847" sparseCutoff="1.0000000000000000"/>
      <sparseX i="217" alpha="265.87054619942558" sparseCutoff="1.0000000000000000"/>
      <sparseX i="218" alpha="-180.68315798706450" sparseCutoff="1.0000000000000000"/>
      <sparseX i="219" alpha="127.20773599953911" sparseCutoff="1.0000000000000000"/>
      <sparseX i="220" alpha="-171.26713250700234" sparseCutoff="1.0000000000000000"/>
      <sparseX i="221" alpha="179.89060990103093" sparseCutoff="1.0000000000000000"/>
      <sparseX i="222" alpha="117.83835902681490" sparseCutoff="1.0000000000000000"/>
      <sparseX i="223" alpha="-53.089056240998097" sparseCutoff="1.0000000000000000"/>
      <sparseX i="224" alpha="66.493122601830166" sparseCutoff="1.0000000000000000"/>
      <sparseX i="225" alpha="50.598976863948288" sparseCutoff="1.0000000000000000"/>
      <sparseX i="226" alpha="-41.283185741083898" sparseCutoff="1.0000000000000000"/>
      <sparseX i="227" alpha="-297.50620713576274" sparseCutoff="1.0000000000000000"/>
      <sparseX i="228" alpha="25.030026718254625" sparseCutoff="1.0000000000000000"/>
      <sparseX i="229" alpha="115.36130007896121" sparseCutoff="1.0000000000000000"/>
      <sparseX i="230" alpha="-73.706750162159935" sparseCutoff="1.0000000000000000"/>
      <sparseX i="231" alpha="-121.04774628028700" sparseCutoff="1.0000000000000000"/>
      <sparseX i="232" alpha="37.224394621051559" sparseCutoff="1.0000000000000000"/>
      <sparseX i="233" alpha="-405.99026175009305" sparseCutoff="1.0000000000000000"/>
      <sparseX i="234" alpha="23.595947344990464" sparseCutoff="1.0000000000000000"/>
      <sparseX i="235" alpha="57.133791007420598" sparseCutoff="1.0000000000000000"/>
      <sparseX i="236" alpha="58.429695544350238" sparseCutoff="1.0000000000000000"/>
      <sparseX i="237" alpha="159.42013129104956" sparseCutoff="1.0000000000000000"/>
      <sparseX i="238" alpha="63.599349429606569" sparseCutoff="1.0000000000000000"/>
      <sparseX i="239" alpha="158.09617970505985" sparseCutoff="1.0000000000000000"/>
      <sparseX i="240" alpha="71.127259336579044" sparseCutoff="1.0000000000000000"/>
      <sparseX i="241" alpha="-20.432503759033377" sparseCutoff="1.0000000000000000"/>
      <sparseX i="242" alpha="-80.056033842186451" sparseCutoff="1.0000000000000000"/>
      <sparseX i="243" alpha="-16.166789995559661" sparseCutoff="1.0000000000000000"/>
      <sparseX i="244" alpha="-72.478101069048961" sparseCutoff="1.0000000000000000"/>
      <sparseX i="245" alpha="-81.418725795713002" sparseCutoff="1.0000000000000000"/>
      <sparseX i="246" alpha="-130.84939689450323" sparseCutoff="1.0000000000000000"/>
      <sparseX i="247" alpha="-21.032518180407816" sparseCutoff="1.0000000000000000"/>
      <sparseX i="248" alpha="-7.0067908125442520" sparseCutoff="1.0000000000000000"/>
      <sparseX i="249" alpha="276.89897255969021" sparseCutoff="1.0000000000000000"/>
      <sparseX i="250" alpha="-219.41366946617595" sparseCutoff="1.0000000000000000"/>
      <sparseX i="251" alpha="156.96449164118033" sparseCutoff="1.0000000000000000"/>
      <sparseX i="252" alpha="-17.791270028119868" sparseCutoff="1.0000000000000000"/>
      <sparseX i="253" alpha="12.416488412148418" sparseCutoff="1.0000000000000000"/>
      <sparseX i="254" alpha="159.72621806407579" sparseCutoff="1.0000000000000000"/>
      <sparseX i="255" alpha="68.547410582893463" sparseCutoff="1.0000000000000000"/>
      <sparseX i="256" alpha="-131.03408281860445" sparseCutoff="1.0000000000000000"/>
      <sparseX i="257" alpha="-134.52120856967198" sparseCutoff="1.0000000000000000"/>
      <sparseX i="258" alpha="-61.306853343410999" sparseCutoff="1.0000000000000000"/>
      <sparseX i="259" alpha="-102.90103430816158" sparseCutoff="1.0000000000000000"/>
      <sparseX i="260" alpha="-83.188948690927987" sparseCutoff="1.0000000000000000"/>
      <sparseX i="261" alpha="158.49223013558785" sparseCutoff="1.0000000000000000"/>
      <sparseX i="262" alpha="-169.47061460832973" sparseCutoff="1.0000000000000000"/>
      <sparseX i="263" alpha="120.04317619156650" sparseCutoff="1.0000000000000000"/>
      <sparseX i="264" alpha="198.92921736304683" sparseCutoff="1.0000000000000000"/>
      <sparseX i="265" alpha="-24.338922623104786" sparseCutoff="1.0000000000000000"/>
      <sparseX i="266" alpha="165.16179860716736" sparseCutoff="1.0000000000000000"/>
      <sparseX i="267" alpha="-147.14504529353974" sparseCutoff="1.0000000000000000"/>
      <sparseX i="268" alpha="32.998976915375906" sparseCutoff="1.0000000000000000"/>
      <sparseX i="269" alpha="2.3408437304653344" sparseCutoff="1.0000000000000000"/>
      <sparseX i="270" alpha="-243.57008990045631" sparseCutoff="1.0000000000000000"/>
      <sparseX i="271" alpha="-177.83245874148463" sparseCutoff="1.0000000000000000"/>
      <sparseX i="272" alpha="97.191829163188416" sparseCutoff="1.0000000000000000"/>
      <sparseX i="273" alpha="-1.4361290369077302" sparseCutoff="1.0000000000000000"/>
      <sparseX i="274" alpha="62.076788933915779" sparseCutoff="1.0000000000000000"/>
      <sparseX i="275" alpha="-66.944346436181732" sparseCutoff="1.0000000000000000"/>
      <sparseX i="276" alpha="-4.9333796243364301" sparseCutoff="1.0000000000000000"/>
      <sparseX i="277" alpha="-153.14642609047172" sparseCutoff="1.0000000000000000"/>
      <sparseX i="278" alpha="-170.31953574946027" sparseCutoff="1.0000000000000000"/>
      <sparseX i="279" alpha="51.718000894639097" sparseCutoff="1.0000000000000000"/>
      <sparseX i="280" alpha="67.022419664946824" sparseCutoff="1.0000000000000000"/>
      <sparseX i="281" alpha="179.58791746520950" sparseCutoff="1.0000000000000000"/>
      <sparseX i="282" alpha="-92.494641712319279" sparseCutoff="1.0000000000000000"/>
      <sparseX i="283" alpha="204.97297868061597" sparseCutoff="1.0000000000000000"/>
      <sparseX i="284" alpha="41.246771471633487" sparseCutoff="1.0000000000000000"/>
      <sparseX i="285" alpha="-3.0854268451805393" sparseCutoff="1.0000000000000000"/>
      <sparseX i="286" alpha="-179.31024894836051" sparseCutoff="1.0000000000000000"/>
      <sparseX i="287" alpha="-186.11069815481355" sparseCutoff="1.0000000000000000"/>
      <sparseX i="288" alpha="218.49260477637532" sparseCutoff="1.0000000000000000"/>
      <sparseX i="289" alpha="220.63057242277415" sparseCutoff="1.0000000000000000"/>
      <sparseX i="290" alpha="-217.12581025986114" sparseCutoff="1.0000000000000000"/>
      <sparseX i="291" alpha="-225.56602967986532" sparseCutoff="1.0000000000000000"/>
      <sparseX i="292" alpha="-.52755925386995295" sparseCutoff="1.0000000000000000"/>
      <sparseX i="293" alpha="101.46327936375923" sparseCutoff="1.0000000000000000"/>
      <sparseX i="294" alpha="-20.701522557895824" sparseCutoff="1.0000000000000000"/>
      <sparseX i="295" alpha="-286.42775639544868" sparseCutoff="1.0000000000000000"/>
      <sparseX i="296" alpha="-83.323020497315838" sparseCutoff="1.0000000000000000"/>
      <sparseX i="297" alpha="130.48798744536461" sparseCutoff="1.0000000000000000"/>
      <sparseX i="298" alpha="-137.60636765122757" sparseCutoff="1.0000000000000000"/>
      <sparseX i="299" alpha="-39.580283369013912" sparseCutoff="1.0000000000000000"/>
      <sparseX i="300" alpha="43.795215221207712" sparseCutoff="1.0000000000000000"/>
      <sparseX i="301" alpha="-334.95669984209889" sparseCutoff="1.0000000000000000"/>
      <sparseX i="302" alpha="55.496309318372063" sparseCutoff="1.0000000000000000"/>
      <sparseX i="303" alpha="-40.394125124087331" sparseCutoff="1.0000000000000000"/>
      <sparseX i="304" alpha="44.874273617323702" sparseCutoff="1.0000000000000000"/>
      <sparseX i="305" alpha="198.36909835021441" sparseCutoff="1.0000000000000000"/>
      <sparseX i="306" alpha="134.74035744159684" sparseCutoff="1.0000000000000000"/>
      <sparseX i="307" alpha="-2.5226084203396359" sparseCutoff="1.0000000000000000"/>
      <sparseX i="308" alpha="-405.01849590811406" sparseCutoff="1.0000000000000000"/>
      <sparseX i="309" alpha="-67.932083016970026" sparseCutoff="1.0000000000000000"/>
      <sparseX i="310" alpha="-130.20531124385138" sparseCutoff="1.0000000000000000"/>
      <sparseX i="311" alpha="44.130329882123284" sparseCutoff="1.0000000000000000"/>
      <sparseX i="312" alpha="140.33261905655209" sparseCutoff="1.0000000000000000"/>
      <sparseX i="313" alpha="-74.743025171283776" sparseCutoff="1.0000000000000000"/>
      <sparseX i="314" alpha="115.67919888521497" sparseCutoff="1.0000000000000000"/>
      <sparseX i="315" alpha="-27.893619094258341" sparseCutoff="1.0000000000000000"/>
      <sparseX i="316" alpha="-119.73145961673085" sparseCutoff="1.0000000000000000"/>
      <sparseX i="317" alpha="137.92616635109897" sparseCutoff="1.0000000000000000"/>
      <sparseX i="318" alpha="44.480052804476784" sparseCutoff="1.0000000000000000"/>
      <sparseX i="319" alpha="73.912292711120614" sparseCutoff="1.0000000000000000"/>
      <sparseX i="320" alpha="-95.347252530462526" sparseCutoff="1.0000000000000000"/>
      <sparseX i="321" alpha="-228.10431573610339" sparseCutoff="1.0000000000000000"/>
      <sparseX i="322" alpha="182.04971123722592" sparseCutoff="1.0000000000000000"/>
      <sparseX i="323" alpha="-269.49476557463049" sparseCutoff="1.0000000000000000"/>
      <sparseX i="324" alpha="82.726061395327037" sparseCutoff="1.0000000000000000"/>
      <sparseX i="325" alpha="73.882063014468329" sparseCutoff="1.0000000000000000"/>
      <sparseX i="326" alpha="-134.27632260004856" sparseCutoff="1.0000000000000000"/>
      <sparseX i="327" alpha="-41.170417515916810" sparseCutoff="1.0000000000000000"/>
      <sparseX i="328" alpha="439.66671430167418" sparseCutoff="1.0000000000000000"/>
      <sparseX i="329" alpha="99.598161557148174" sparseCutoff="1.0000000000000000"/>
      <sparseX i="330" alpha="-103.96337837486740" sparseCutoff="1.0000000000000000"/>
      <sparseX i="331" alpha="80.804753849552512" sparseCutoff="1.0000000000000000"/>
      <sparseX i="332" alpha="139.74939376628549" sparseCutoff="1.0000000000000000"/>
      <sparseX i="333" alpha="-124.62225952856134" sparseCutoff="1.0000000000000000"/>
      <sparseX i="334" alpha="-165.04951024694438" sparseCutoff="1.0000000000000000"/>
      <sparseX i="335" alpha="177.54296971228675" sparseCutoff="1.0000000000000000"/>
      <sparseX i="336" alpha="180.56082669022615" sparseCutoff="1.0000000000000000"/>
      <sparseX i="337" alpha="61.258310936945421" sparseCutoff="1.0000000000000000"/>
      <sparseX i="338" alpha="-233.42052768332405" sparseCutoff="1.0000000000000000"/>
      <sparseX i="339" alpha="84.916772379806432" sparseCutoff="1.0000000000000000"/>
      <sparseX i="340" alpha="-182.71689647523360" sparseCutoff="1.0000000000000000"/>
      <sparseX i="341" alpha="62.742369422772825" sparseCutoff="1.0000000000000000"/>
      <sparseX i="342" alpha="128.45016540296268" sparseCutoff="1.0000000000000000"/>
      <sparseX i="343" alpha="159.04117929663872" sparseCutoff="1.0000000000000000"/>
      <sparseX i="344" alpha="269.46081495606751" sparseCutoff="1.0000000000000000"/>
      <sparseX i="345" alpha="147.66732872928387" sparseCutoff="1.0000000000000000"/>
      <sparseX i="346" alpha="-87.420555504524899" sparseCutoff="1.0000000000000000"/>
      <sparseX i="347" alpha="242.90767179744364" sparseCutoff="1.0000000000000000"/>
      <sparseX i="348" alpha="44.543819446494396" sparseCutoff="1.0000000000000000"/>
      <sparseX i="349" alpha="152.88672795179204" sparseCutoff="1.0000000000000000"/>
      <sparseX i="350" alpha="319.66229956975002" sparseCutoff="1.0000000000000000"/>
      <sparseX i="351" alpha="475.43755486056716" sparseCutoff="1.0000000000000000"/>
      <sparseX i="352" alpha="-114.33661010262401" sparseCutoff="1.0000000000000000"/>
      <sparseX i="353" alpha="52.604807327127453" sparseCutoff="1.0000000000000000"/>
      <sparseX i="354" alpha="-111.54197424730673" sparseCutoff="1.0000000000000000"/>
      <sparseX i="355" alpha="-247.79610071657973" sparseCutoff="1.0000000000000000"/>
      <sparseX i="356" alpha="298.84675785510836" sparseCutoff="1.0000000000000000"/>
      <sparseX i="357" alpha="184.03743754689444" sparseCutoff="1.0000000000000000"/>
      <sparseX i="358" alpha="16.478531744848041" sparseCutoff="1.0000000000000000"/>
      <sparseX i="359" alpha="-34.846465727398716" sparseCutoff="1.0000000000000000"/>
      <sparseX i="360" alpha="586.40372040291572" sparseCutoff="1.0000000000000000"/>
      <sparseX i="361" alpha="-645.47926659532527" sparseCutoff="1.0000000000000000"/>
      <sparseX i="362" alpha="-167.76617798737868" sparseCutoff="1.0000000000000000"/>
      <sparseX i="363" alpha="115.05330506194335" sparseCutoff="1.0000000000000000"/>
      <sparseX i="364" alpha="-5.5519747492523814" sparseCutoff="1.0000000000000000"/>
      <sparseX i="365" alpha="-248.32150754096543" sparseCutoff="1.0000000000000000"/>
      <sparseX i="366" alpha="-22.271716627274330" sparseCutoff="1.0000000000000000"/>
      <sparseX i="367" alpha="-102.61143536163583" sparseCutoff="1.0000000000000000"/>
      <sparseX i="368" alpha="208.30261928308485" sparseCutoff="1.0000000000000000"/>
      <sparseX i="369" alpha="354.35945247339640" sparseCutoff="1.0000000000000000"/>
      <sparseX i="370" alpha="3.0918228821951126" sparseCutoff="1.0000000000000000"/>
      <sparseX i="371" alpha="123.68925281523703" sparseCutoff="1.0000000000000000"/>
      <sparseX i="372" alpha="-111.50951530682623" sparseCutoff="1.0000000000000000"/>
      <sparseX i="373" alpha="157.84435275374059" sparseCutoff="1.0000000000000000"/>
      <sparseX i="374" alpha="82.522589923198652" sparseCutoff="1.0000000000000000"/>
      <sparseX i="375" alpha="134.48302552165157" sparseCutoff="1.0000000000000000"/>
      <sparseX i="376" alpha="-194.51543256605251" sparseCutoff="1.0000000000000000"/>
      <sparseX i="377" alpha="-71.533012865741924" sparseCutoff="1.0000000000000000"/>
      <sparseX i="378" alpha="-137.87432801715588" sparseCutoff="1.0000000000000000"/>
      <sparseX i="379" alpha="-175.84217290415793" sparseCutoff="1.0000000000000000"/>
      <sparseX i="380" alpha="161.44502606903671" sparseCutoff="1.0000000000000000"/>
      <sparseX i="381" alpha="-93.995338494266520" sparseCutoff="1.0000000000000000"/>
      <sparseX i="382" alpha="-128.75364555927263" sparseCutoff="1.0000000000000000"/>
      <sparseX i="383" alpha="78.451179991434813" sparseCutoff="1.0000000000000000"/>
      <sparseX i="384" alpha="-127.18979483818529" sparseCutoff="1.0000000000000000"/>
      <sparseX i="385" alpha="-100.70018723606285" sparseCutoff="1.0000000000000000"/>
      <sparseX i="386" alpha="35.535191608532010" sparseCutoff="1.0000000000000000"/>
      <sparseX i="387" alpha="-178.57217194713047" sparseCutoff="1.0000000000000000"/>
      <sparseX i="388" alpha="-358.74657207153473" sparseCutoff="1.0000000000000000"/>
      <sparseX i="389" alpha="-182.16371393218361" sparseCutoff="1.0000000000000000"/>
      <sparseX i="390" alpha="70.111176301643880" sparseCutoff="1.0000000000000000"/>
      <sparseX i="391" alpha="-116.55064410709909" sparseCutoff="1.0000000000000000"/>
      <sparseX i="392" alpha="26.337833013186046" sparseCutoff="1.0000000000000000"/>
      <sparseX i="393" alpha="32.087557100023808" sparseCutoff="1.0000000000000000"/>
      <sparseX i="394" alpha="6.3414284535944496" sparseCutoff="1.0000000000000000"/>
      <sparseX i="395" alpha="-94.297052181598190" sparseCutoff="1.0000000000000000"/>
      <sparseX i="396" alpha="-233.96177323339481" sparseCutoff="1.0000000000000000"/>
      <sparseX i="397" alpha="39.290721793939404" sparseCutoff="1.0000000000000000"/>
      <sparseX i="398" alpha="-99.233247220924255" sparseCutoff="1.0000000000000000"/>
      <sparseX i="399" alpha="2.8471705954282829" sparseCutoff="1.0000000000000000"/>
      <sparseX i="400" alpha="-45.808967174566817" sparseCutoff="1.0000000000000000"/>
    </gpCoordinates>
  </gpSparse>
  <command_line><![CDATA[ at_file=NaCl_snapsT300.xyz core_ip_args={IP Coulomb} core_param_file=ip.params.coul.xml gp_file=gp_NaCl_soap_coul.xml gap={soap add_species=True n_max=12 l_max=11 cutoff=6.0 cutoff_transition_width=0.5 delta=1.0 atom_sigma=0.5 zeta=4 config_type_n_sparse={NaCl_snapsT300:400} sparse_method=cur_points covariance_type=dot_product} sparse_jitter=1e-12 default_sigma={0.005 0.2 1.0 0.0} config_type_sigma={NaCl_snapsT300:0.001:0.01:0.05:0.0}]]></command_line>
  <XYZ_data>
    <![CDATA[128]]>
    <![CDATA[Lattice="15.9923497 -0 -0 7.99617486 13.8497811 0 7.99617486 4.61659371 13.0576989" Properties=species:S:1:pos:R:3:force:R:3:Z:I:1 config_type=NaCl_snapsT300 degauss=0.010000000000 ecutwfc=350.00000000 pbc="T T T" kpoints="1 1 1" energy=-427.79955794 config_name=NaCl_snapsT3001_istep0 virial="22.931 0.506319 1.47723 0.506319 27.2236 1.19695 1.47723 1.19695 24.9936"]]>
    <![CDATA[Na       31.83064202       18.41553733       13.01801078       0.42995776      -0.03050796       0.20833934      11]]>
    <![CDATA[Na       12.20377143       4.83244795       12.99525382      -0.43585320      -0.38280535       0.12849448      11]]>
    <![CDATA[Na       8.01386712       0.22504228       0.04361402       0.05282637      -0.33050964      -0.30642300      11]]>
    <![CDATA[Na       20.09950857       13.75927212       0.04139656      -0.27194950       0.13911380      -0.02375417      11]]>
    <![CDATA[Na       17.94217602       3.45967025       0.04131521       0.19027499       0.22739342      -0.10262596      11]]>
    <![CDATA[Na       13.83184668       8.19370599       12.91993440       0.44854536      -0.16595148       0.36163438      11]]>
    <![CDATA[Na       17.87159626       8.12437011       12.91362949       1.25721574      -0.40348853       0.99169031      11]]>
    <![CDATA[Na       14.17764806       3.39741336       0.03922441      -0.42896784       0.33527875      -0.10719609      11]]>
    <![CDATA[Na       20.02735605       7.17582935       0.16802947      -0.05028610      -0.54227846      -0.66688890      11]]>
    <![CDATA[Na       8.18544880       6.75506335       0.16200752      -0.34490988       0.17419995      -0.42716183      11]]>
    <![CDATA[Na       11.91172273       6.98895577       0.00194886       0.10639612      -0.22855671      -0.34152121      11]]>
    <![CDATA[Na       15.90842675       7.27496479       0.27363492      -0.15950347      -2.78503471      -2.04864682      11]]>
    <![CDATA[Na       29.92290007       15.03211982       12.96836697       0.11476709       0.01943928       0.10299445      11]]>
    <![CDATA[Na       9.91572932       10.21351477       0.12790382       0.14557643       0.32405947      -0.28252907      11]]>
    <![CDATA[Na       13.82930918       10.57780713       0.13172607       0.22213138      -0.09933900      -0.32723093      11]]>
    <![CDATA[Na       17.82625939       10.35799652       0.04135243       0.70732207       0.01129849      -0.32938704      11]]>
    <![CDATA[Na       2.11556222       1.30279637       3.26018828      -0.23304580      -0.33730944       0.10886579      11]]>
    <![CDATA[Na       5.99863483       1.28358225       3.45008953       0.00326612      -0.49769820      -0.49194323      11]]>
    <![CDATA[Na       17.83671511       14.90009756       3.24924031       0.28752421       0.23870915      -0.11650625      11]]>
    <![CDATA[Na       14.17841146       1.13813259       3.11057251      -0.21589830      -0.02439713       0.16385163      11]]>
    <![CDATA[Na       4.04521561       4.45967255       3.38699747      -0.15716123       0.15544124      -0.08162854      11]]>
    <![CDATA[Na       8.00249456       4.53926807       3.54954976       0.14908743       0.44726759      -0.69829989      11]]>
    <![CDATA[Na       12.17954877       4.45402761       3.30196508      -0.59303251       0.35260865      -0.49750963      11]]>
    <![CDATA[Na       16.04002283       4.44576474       2.99992692       0.07124437       0.60204165       0.57671321      11]]>
    <![CDATA[Na       5.83242681       7.90795768       2.97472570       0.29721856       0.36899038       0.69694481      11]]>
    <![CDATA[Na       10.01146784       7.85764807       3.26354306      -0.02113894       0.18596735       0.10684366      11]]>
    <![CDATA[Na       13.86359733       7.95982442       2.93705685       0.30626382       0.15103627       0.66991398      11]]>
    <![CDATA[Na       18.16081319       7.93884477       3.05209178      -0.40603035      -0.04458260       0.61483913      11]]>
    <![CDATA[Na       8.07860071       11.58871378       3.38716996      -0.08027184      -0.08325457      -0.27633361      11]]>
    <![CDATA[Na       12.09632962       11.49327374       3.13945784      -0.36399796       0.40990629      -0.11892324      11]]>
    <![CDATA[Na       16.21197362       11.52589672       3.30412652      -0.34636951       0.03302522      -0.09262668      11]]>
    <![CDATA[Na       19.67738459       11.57980685       3.53899626       1.27763230       0.65090312      -0.93931663      11]]>
    <![CDATA[Na       12.07419749       15.92650300       6.45236592      -0.13622169       0.70699238       0.41854657      11]]>
    <![CDATA[Na       7.82986914       2.46303621       6.51943940       0.50917235      -0.07871597       0.06841109      11]]>
    <![CDATA[Na       11.96975817       2.44221759       6.38637688      -0.16875745      -0.11605331       0.20268243      11]]>
    <![CDATA[Na       23.57142931       15.99274156       6.49542708       1.17909250       0.52039457      -0.85852936      11]]>
    <![CDATA[Na       21.91817705       5.71924450       6.80612797       0.07909855       0.17196324      -0.29410736      11]]>
    <![CDATA[Na       10.07818257       6.05565670       6.48383223      -0.36121667      -0.43323857       0.12665089      11]]>
    <![CDATA[Na       13.93601637       5.63682606       6.27797735       0.26161489       0.47837352       0.67098179      11]]>
    <![CDATA[Na       18.09041231       5.76105237       6.48087597      -0.41633374      -0.18051821       0.23744458      11]]>
    <![CDATA[Na       8.06020951       9.37480180       6.28483421       0.04244644      -0.14882756       0.25205849      11]]>
    <![CDATA[Na       12.07094945       9.28536906       6.41834043      -0.22624960      -0.07863160       0.36867567      11]]>
    <![CDATA[Na       15.94610624       9.14249093       6.54999403       0.25551078       0.05852547      -0.17105051      11]]>
    <![CDATA[Na       20.04228851       9.29798981       6.48019240      -0.15258604      -0.31531654       0.37183908      11]]>
    <![CDATA[Na       26.03787615       12.88621922       6.42985223      -0.05929330      -1.01683662      -0.52420912      11]]>
    <![CDATA[Na       13.85136798       12.66821900       6.42030392       0.06781142       0.26728986       0.32351155      11]]>
    <![CDATA[Na       17.80141711       12.73904152       6.67625153       0.29656878       0.05139154      -0.11693647      11]]>
    <![CDATA[Na       21.80796490       12.60803362       6.53513384       0.04535107      -0.01534071      -0.03456414      11]]>
    <![CDATA[Na       6.11531429       3.57312692       9.85791055      -0.16763913      -0.25850065      -0.04795717      11]]>
    <![CDATA[Na       18.10988371       17.22360079       9.69178319      -0.12014203       0.10319802       0.25618258      11]]>
    <![CDATA[Na       13.98696120       3.58638356       9.65721828      -0.03175410       0.02231041       0.34204980      11]]>
    <![CDATA[Na       25.98096697       17.29988986       9.76671244      -0.09043383      -0.01552229       0.14538324      11]]>
    <![CDATA[Na       23.81212872       6.76002411       10.01925813       0.30276815       0.38123942      -0.27866709      11]]>
    <![CDATA[Na       12.18166344       6.85068219       9.76031313      -0.45995181       0.50170548      -0.07197088      11]]>
    <![CDATA[Na       15.94963239       6.91587851       9.52957223       0.83817480      -0.23557113       0.89560329      11]]>
    <![CDATA[Na       19.95777014       6.95798706       9.66631872       0.14247402       0.09818669       0.30413304      11]]>
    <![CDATA[Na       25.93156820       10.23382884       9.91878306       0.07465581       0.12517273      -0.12266317      11]]>
    <![CDATA[Na       13.88837204       10.42186178       9.87345430       0.24751599      -0.11916347      -0.01614782      11]]>
    <![CDATA[Na       17.92833320       10.43273820       9.65739326      -0.31477576      -0.39325859       0.67668581      11]]>
    <![CDATA[Na       22.16392821       10.34464357       9.63049296      -0.69229461      -0.23533302       0.72656099      11]]>
    <![CDATA[Na       12.10929398       13.73576198       9.77427324      -0.60862469       0.49358895      -0.35512561      11]]>
    <![CDATA[Na       15.99224145       13.86032211       9.60441138      -0.08711234      -0.04206829       0.25550000      11]]>
    <![CDATA[Na       20.10041294       13.78435398       9.84134477      -0.39078109       0.15968748      -0.18578351      11]]>
    <![CDATA[Na       23.98115027       13.91588720       9.79939991       0.14919114      -0.14349929       0.08798692      11]]>
    <![CDATA[Cl       3.96488123       2.20618251       1.69778486       0.39613914       0.51890601      -0.15118429      17]]>
    <![CDATA[Cl       8.06137735       2.30979813       1.53758178      -0.18518159       0.08503513       0.47184611      17]]>
    <![CDATA[Cl       12.15610751       2.39525303       1.62457334      -0.13892090      -0.33570039       0.05354775      17]]>
    <![CDATA[Cl       16.09661312       2.36062391       1.61823958      -0.15546092      -0.47199154      -0.06852820      17]]>
    <![CDATA[Cl       6.09439814       5.66003516       1.81408874      -0.18860566      -0.11083750      -0.44652027      17]]>
    <![CDATA[Cl       10.03542806       5.81711541       1.55210037       0.37282389      -0.28744065       0.51168673      17]]>
    <![CDATA[Cl       14.01575734       5.77742844       1.63014533       0.04204882      -0.15467002      -0.13689804      17]]>
    <![CDATA[Cl       18.12151767       5.78631054       1.53703701      -0.09007257      -0.18041886       0.15638508      17]]>
    <![CDATA[Cl       8.12735539       9.09204869       1.73702729      -0.37389553       0.18422938      -0.11063965      17]]>
    <![CDATA[Cl       12.05154057       9.24609482       1.64806676      -0.26873025      -0.13183387      -0.13804143      17]]>
    <![CDATA[Cl       16.11634832       9.10971007       1.39499288      -0.27216129       2.36241896       2.27526560      17]]>
    <![CDATA[Cl       19.89667688       9.18986909       1.66604982       0.35291805       0.53101852      -0.07548262      17]]>
    <![CDATA[Cl       10.15998887       12.86649182       1.78536441      -0.32933392      -0.29972125      -0.45223795      17]]>
    <![CDATA[Cl       13.99809571       12.65535375       1.82128079       0.43110789       0.32968975      -0.27076542      17]]>
    <![CDATA[Cl       18.06980465       12.62692602       1.47237751      -0.16987189       0.22520789       0.47268489      17]]>
    <![CDATA[Cl       21.86056629       12.64020906       1.78932664       0.30684616      -0.17372219      -0.22814496      17]]>
    <![CDATA[Cl       6.13089947       3.42749361       4.78960338      -0.58276886       0.26038022       0.56020015      17]]>
    <![CDATA[Cl       10.00050661       3.58749486       4.78672494       0.23246347      -0.30863726       0.41914892      17]]>
    <![CDATA[Cl       13.91514755       3.59667136       4.85049221       0.46350517      -0.86176202       0.04218011      17]]>
    <![CDATA[Cl       17.87099055       3.38165822       4.93261469       0.12120215       0.20855971      -0.01401892      17]]>
    <![CDATA[Cl       7.87927102       6.99098601       4.92945238       0.22153554      -0.09640204      -0.04270835      17]]>
    <![CDATA[Cl       12.01546239       6.82548118       4.95261713       0.02437325       0.41965185      -0.40904624      17]]>
    <![CDATA[Cl       15.97051728       6.79440670       4.96739871       0.07632248       0.32761337      -0.41438195      17]]>
    <![CDATA[Cl       19.90797796       6.91179629       5.10787369       0.36764351      -0.11329670      -0.50000213      17]]>
    <![CDATA[Cl       10.22184936       10.69271937       4.73575474      -0.55048892      -0.66102169       0.51668578      17]]>
    <![CDATA[Cl       13.67455409       10.62743191       4.91032141       1.05940416      -0.66959342      -0.10131848      17]]>
    <![CDATA[Cl       18.18694741       10.28508347       4.76377525      -1.38456825      -0.52472349       0.71541236      17]]>
    <![CDATA[Cl       21.88194463       10.25693831       4.97676630       0.26090433       0.38188498      -0.45946585      17]]>
    <![CDATA[Cl       11.96604267       14.03521483       4.91194579       0.28986981      -0.57270423      -0.52047199      17]]>
    <![CDATA[Cl       16.00193074       13.92335837       4.99091262       0.13772257      -0.16796270      -0.20975655      17]]>
    <![CDATA[Cl       20.10159925       13.94354059       4.86570652      -0.21834117       0.02374283       0.14795018      17]]>
    <![CDATA[Cl       24.13027653       13.81476616       4.81676287      -0.52329016       0.28610840       0.13341658      17]]>
    <![CDATA[Cl       8.05721182       4.65584108       8.18882690      -0.11121062      -0.07981718      -0.01174956      17]]>
    <![CDATA[Cl       11.90885459       4.76371666       8.27600362       0.18026365      -0.45227129      -0.49863531      17]]>
    <![CDATA[Cl       15.92694509       4.71371738       8.13002103       0.14784264      -0.50696824      -0.10695916      17]]>
    <![CDATA[Cl       19.95930956       4.32218619       8.19343379       0.20461933       0.38761396      -0.09118999      17]]>
    <![CDATA[Cl       10.07890582       7.95548052       8.22227524       0.02667428       0.56452845      -0.03525591      17]]>
    <![CDATA[Cl       14.31560982       8.02301021       8.21638152      -1.29759742       0.57906727      -0.54020987      17]]>
    <![CDATA[Cl       18.09418770       8.08747365       8.25512658      -0.17477825       0.01953460      -0.55814388      17]]>
    <![CDATA[Cl       22.16935466       8.11867771       8.14588875      -0.25098549      -0.34219513       0.08849484      17]]>
    <![CDATA[Cl       12.10351563       11.57201806       8.32533417      -0.25524584      -0.47084159      -0.47820996      17]]>
    <![CDATA[Cl       15.96776068       11.52336165       8.05904434      -0.31289906      -0.14511970       0.09466516      17]]>
    <![CDATA[Cl       19.66090743       11.38977867       8.20602089       0.94251232       0.56368798      -0.53674011      17]]>
    <![CDATA[Cl       23.68574518       11.46141634       8.07708917       0.76231475       0.52304218      -0.32917978      17]]>
    <![CDATA[Cl       14.11231667       15.00399165       7.94041006      -0.05892690      -0.05493876       0.42459053      17]]>
    <![CDATA[Cl       18.10162055       14.88208168       8.34879768       0.09073952       0.30262944      -0.55130745      17]]>
    <![CDATA[Cl       22.15313002       15.21665504       8.20247533      -0.88709868      -0.67543441       0.57320224      17]]>
    <![CDATA[Cl       26.29594390       14.64011312       7.97759185      -0.54419942       1.19294748       1.10220277      17]]>
    <![CDATA[Cl       9.84880254       5.99066300       11.57490380       0.21768459      -0.54959471      -0.20754507      17]]>
    <![CDATA[Cl       13.94058850       5.91650711       11.33485342       0.42572092      -0.36446706       0.28277844      17]]>
    <![CDATA[Cl       17.96031606       6.12462874       11.28548826       0.01804045      -1.09557679       0.00731692      17]]>
    <![CDATA[Cl       21.90985663       5.81283010       11.61948775      -0.01639602      -0.27898342      -0.39743556      17]]>
    <![CDATA[Cl       11.99518641       9.12639891       11.43145832      -0.11527522       0.32443809      -0.10822942      17]]>
    <![CDATA[Cl       16.22212292       9.06943938       11.60992324      -1.64818100       1.11617874      -1.06593691      17]]>
    <![CDATA[Cl       19.94082232       9.17846112       11.48499828       0.35272523       0.26054977      -0.14637585      17]]>
    <![CDATA[Cl       23.93279596       9.29031966       11.50035518       0.05670527       0.01978024      -0.02413812      17]]>
    <![CDATA[Cl       13.81562132       12.86888160       11.26373152       0.88882359      -0.50614988       0.81468525      17]]>
    <![CDATA[Cl       17.94251977       12.71929242       11.30557218      -0.12891437      -0.05252757       0.32899590      17]]>
    <![CDATA[Cl       21.85911707       12.83364979       11.35339234       0.48598898      -0.28880571       0.36417808      17]]>
    <![CDATA[Cl       25.99312939       12.69229163       11.34473718      -0.12802341      -0.03858644       0.15682336      17]]>
    <![CDATA[Cl       16.11085903       16.24398693       11.34628321      -0.25199358      -0.12907012       0.22907315      17]]>
    <![CDATA[Cl       19.98842171       16.12108157       11.42093956       0.05114895       0.27751287       0.06481678      17]]>
    <![CDATA[Cl       24.03446724       16.13963026       11.72351243      -0.32503569       0.39386229      -0.70216685      17]]>
    <![CDATA[Cl       28.00790734       16.06427032       11.38095519      -0.03629453       0.29937724       0.02294032      17]]>
    <![CDATA[128]]>
    <![CDATA[Lattice="15.9923497 -0 -0 7.99617486 13.8497811 0 7.99617486 4.61659371 13.0576989" Properties=species:S:1:pos:R:3:force:R:3:Z:I:1 config_type=NaCl_snapsT300 degauss=0.010000000000 ecutwfc=350.00000000 pbc="T T T" kpoints="1 1 1" energy=-427.47808076 config_name=NaCl_snapsT3002_istep0 virial="25.118 5.29886 -7.44096 5.29886 24.5364 -0.190311 -7.44096 -0.190311 25.4445"]]>
    <![CDATA[Na       8.28606283       4.70838955       12.85391468      -0.85296092      -0.56476330       0.45322709      11]]>
    <![CDATA[Na       12.08162578       13.64485238       0.03021447      -0.19608059       0.11445881       0.09458912      11]]>
    <![CDATA[Na       8.12463333       0.27925457       0.03836900      -0.42877999      -0.81904417      -0.11362220      11]]>
    <![CDATA[Na       19.77785644       13.82974539       0.00896019       0.34621934      -0.06100157       0.06040174      11]]>
    <![CDATA[Na       25.89719729       7.99617852       13.05576646      -0.06664566       0.50305761       0.09897975      11]]>
    <![CDATA[Na       13.63420347       7.73655417       13.03467619       0.62498125       0.88981490      -0.17000628      11]]>
    <![CDATA[Na       17.96939732       8.12978971       13.02129414      -0.12387981       0.03374480       0.13242258      11]]>
    <![CDATA[Na       21.93791113       7.59994256       12.89993484       0.01159210       0.72583048       0.50277930      11]]>
    <![CDATA[Na       19.70510197       7.05764700       0.17623872       1.10875551       0.18224045      -1.03139790      11]]>
    <![CDATA[Na       7.85467503       6.93528409       0.11278470       0.68146142       0.06823591      -0.42933116      11]]>
    <![CDATA[Na       12.19068177       6.71892428       0.02329441      -0.18608874       0.31741012       0.39623695      11]]>
    <![CDATA[Na       23.89119218       11.71346398       12.92452262      -0.03729514      -0.42897935       0.53669811      11]]>
    <![CDATA[Na       6.02363415       10.11077603       0.02221611      -0.08890174       0.94897854       0.46704183      11]]>
    <![CDATA[Na       10.10424170       10.47122162       0.01291537      -0.11392395      -0.31274960      -0.06219436      11]]>
    <![CDATA[Na       14.02952348       10.34073969       0.02083904       0.02343134      -0.34401307      -0.15347710      11]]>
    <![CDATA[Na       25.91005082       15.04170123       13.03822122      -0.01316641      -0.11081090       0.05181798      11]]>
    <![CDATA[Na       17.73462355       1.25818046       3.24245592       0.64359914       0.05677171      -0.30219006      11]]>
    <![CDATA[Na       6.07903277       1.11800982       3.13939725      -0.34321405      -0.06783873       0.13791505      11]]>
    <![CDATA[Na       9.65111159       1.18934455       3.22233270       1.14823437       0.19334771      -0.04315437      11]]>
    <![CDATA[Na       21.95297121       14.93329563       3.26637423       0.28106118       0.16092377      -0.34482532      11]]>
    <![CDATA[Na       19.92994993       4.69911763       3.29086382       0.04872107       0.08472426      -0.13263422      11]]>
    <![CDATA[Na       7.75450535       4.39166902       3.37326181       0.90733754       0.63252528      -0.52529202      11]]>
    <![CDATA[Na       11.90732892       4.52219956       3.23852778       0.38394335       0.29060430       0.39499939      11]]>
    <![CDATA[Na       16.14026912       4.49541990       3.44773209      -0.46500733       0.46390906      -0.38385625      11]]>
    <![CDATA[Na       6.13105876       7.79113196       3.30779169      -0.12706814       0.25519409       0.03283748      11]]>
    <![CDATA[Na       10.08711557       8.26921080       3.55971909      -0.36131696      -0.52230770      -0.90665552      11]]>
    <![CDATA[Na       14.00341589       7.85218309       3.21347789       0.14451735       0.13728668       0.01465549      11]]>
    <![CDATA[Na       18.13399698       8.13552556       3.35682609      -0.31261213       0.01606613      -0.06385785      11]]>
    <![CDATA[Na       8.07661750       11.55072900       3.18895187      -0.30746527      -0.07334409      -0.13422086      11]]>
    <![CDATA[Na       12.23490030       11.49975239       3.45556632      -0.29245196      -0.08063596      -0.44566474      11]]>
    <![CDATA[Na       16.10600327       11.72217983       3.16476588      -0.19896667      -0.61488472       0.06875884      11]]>
    <![CDATA[Na       19.89149840       11.48125093       3.36939504       0.07158056       0.12463037      -0.29902207      11]]>
    <![CDATA[Na       11.99542062       16.00532506       6.48539211       0.10010374       0.31364018       0.01017580      11]]>
    <![CDATA[Na       15.87133617       15.99326111       6.74934566       0.70165602       0.43230940      -0.48695637      11]]>
    <![CDATA[Na       11.84872751       2.39823055       6.37108488       0.64633948      -0.32574881       0.30795659      11]]>
    <![CDATA[Na       23.83945301       16.13943729       6.55763970       0.07642589       0.12307566       0.06974905      11]]>
    <![CDATA[Na       21.85764473       5.75289965       6.57853829       0.27199601       0.19039086      -0.07703007      11]]>
    <![CDATA[Na       10.24992561       5.60505707       6.22198855      -0.66065198       0.35597423       0.18966682      11]]>
    <![CDATA[Na       14.05892709       5.97877582       6.77246340       0.01254185      -0.11857020      -0.47084984      11]]>
    <![CDATA[Na       17.94828726       5.76802726       6.53270002       0.12507302       0.33684456      -0.05857612      11]]>
    <![CDATA[Na       23.96021732       9.67158027       6.35611932      -0.09003187      -0.68168920       0.48270589      11]]>
    <![CDATA[Na       12.05599468       9.03044860       6.44688900      -0.02914585       0.62324406       0.55881944      11]]>
    <![CDATA[Na       16.17149658       9.28238254       6.52081464      -0.47322010      -0.23793028      -0.07464457      11]]>
